svm_type c_svc
kernel_type rbf
gamma 0.5
nr_class 6
total_sv 96
rho 0.0214342 0.00527217 0.0037754 -0.0147757 0.0573414 -0.0161699 -0.0176535 -0.0361825 0.0359588 -0.00149803 -0.0200539 0.0520914 -0.0185632 0.0535626 0.0720432
label 23545 26377 30340 31216 38382 39064
probA -16.7041 -5.73245 -9.42311 -18.1236 -17.8022 -4.43449 -9.2685 -3.82791 1.53459 -9.48535 -4.66623 -5.29574 -4.02718 -5.13044 -7.35768
probB 0.131593 0.0265529 -0.00682439 0.297017 0.0935166 -0.000216268 0.083406 0.0316851 -0.00138075 0.0435908 0.0119526 0.0179388 -0.086053 0.000428729 -0.00337632
nr_sv 16 16 16 16 16 16
SV
0.8347614148333979 0.8217912843839993 0.8204442073254004 0.8054528081328711 0.8642610868033904 0:0.092436975 1:0.27272727 2:0.15 3:0.2 4:0.094339623 5:0.094339623 6:0.075471698 7:0.02 8:0.058823529 9:0.06 10:0.019607843 11:0.06 12:0.12280702 13:0.15789474 14:0.14035088 15:0.13559322 16:0.10714286 17:0.125 18:0.089285714 19:0.14285714 20:0.19642857 21:0.20754717 22:0.30612245 23:0.33333333 24:0.46938776 25:0.42857143 26:0.33333333 27:0.24489796 28:0.19148936 29:0.021276596 30:0.044444444 31:0.023809524 32:0.022222222 33:0.040816327 34:0.041666667 35:0.043478261 36:0.11111111 37:0.19512195 38:0.17073171 39:0.14634146 40:0.097560976 41:0 42:0 43:0 44:0.075471698 45:0.076923077 46:0.086956522 47:0.086956522 48:0.10169492 49:0.14754098 50:0.25806452 51:0.96666667 52:0.94915254 53:0.93220339 54:0.049180328 55:0.016666667 56:0.018181818 57:0 58:0.053571429 59:0.086956522 60:0.14285714 61:0.2 62:0.16 63:0.1875 64:0.125 65:0 66:0.13333333 67:0.1025641 68:0.038461538 69:0 70:0 71:0 72:0 73:0.018181818 74:0.034482759 75:0.4137931 76:0.12280702 77:0.050847458 78:0.068965517 79:0.070175439 80:0.087719298 81:0.12280702 82:0.1754386 83:0.66037736 84:0.65384615 85:0.065217391 86:0.043478261 87:0 88:0 89:0 90:0.025 91:0.024390244 92:0 93:0.046511628 94:0.046511628 95:0.023255814 96:0 97:0 98:0 99:0 100:0.060606061 101:0.17142857 102:0.16216216 103:0.15789474 104:0.21052632 105:0.14285714 106:0.083333333 107:0.083333333 108:0.083333333 109:0.027027027 110:0 111:0.088235294 112:0.096774194 113:0.074074074 114:0.10344828 115:0.1 116:0.078947368 117:0.023809524 118:0 119:0.02 120:0.16326531 121:0.20454545 122:0.071428571 123:0.15555556 124:0.13953488 125:0.1025641 126:0.088235294 127:0 128:0 129:0.38582677 130:0.23684211 131:0 132:0.4 133:0.53846154 134:0.67857143 135:0.33333333 136:0.4516129 137:0.33333333 138:0.10526316 139:0.59090909 140:0.59259259 141:0.28125 142:0.18518519 143:0.2 144:0.25925926 145:0.19230769 146:0.31818182 147:0.27586207 148:0.083333333 149:0.76923077 150:0.17307692 151:0.75 152:0.083333333 153:0.61538462 154:0.13207547 155:0.9 156:0.81818182 157:0.94736842 158:1 159:0.066666667 160:0.12962963 161:0.9375 162:1 163:0.25925926 164:0.4 165:0.46666667 166:0.28888889 167:0.72222222 168:0.44444444 169:0.55 170:0.625 171:0.25925926 172:0.375 173:0.33333333 174:0.30232558 175:0.083333333 176:0.63636364 177:0.81132075 178:1 179:1 180:1 181:0.22222222 182:0.26785714 183:0.38888889 184:0.083333333 185:0.83333333 186:0.06122449 187:0.8 188:0.375 189:0.41176471 190:0.28571429 191:0 192:0.31818182 193:0 194:0.48 195:0.27586207 196:1 197:0.27272727 198:0.053571429 199:0 200:0.036363636 201:0.5 202:0.24 203:0.63636364 204:0.31034483 205:0.73333333 206:0.35714286 207:0.73333333 208:0.057142857 209:0.61111111 210:0.97727273 211:0 212:0 213:0.28813559 214:0 215:0.083333333 216:0 217:0.17647059 218:0.086956522 219:0 220:0 221:0 222:0 223:0.05 224:0.125 225:0 226:0.81481481 227:0 228:0.41176471 229:0 230:0 231:0.16666667 232:0.05 233:0.069767442 234:0 235:0.043478261 236:0.034482759 237:0.52380952 238:0.032258065 239:0 240:0.0625 241:0.28571429 242:0.54716981 243:0.43478261 244:0.1 245:0.05 246:0.06 247:0.16666667 248:0.35714286 249:0.041666667 250:0 251:0.043478261 252:0.16666667 253:0.035714286 254:0.038461538 255:0.1 256:0 257:0 258:0.96296296 259:0.55 260:0.125 261:0.17647059 262:0.052631579 263:0.21428571 264:0.33333333 265:0.11764706 266:0.19148936 267:0.2 268:0.33333333 269:0.18518519 270:0.068965517 271:0.25 272:0 273:0.11111111 274:0.70909091 275:0.28742304 276:8.8579632e-315 277:0.29839951 278:0.9087289 279:4.6686448e-292 280:0.56872252 281:0.38501344 282:0.5071557 283:0.81625503 284:2.2775644e-291 285:7.8529544e-293 286:0.40411693 287:0.85320617 288:0.3498922 289:0.39657598 290:0.33152982 291:0.82385576 292:0.57330552 293:0.31197576 294:0.010137969 295:0.27911471 296:0.67163966 297:0.036604933 298:0.7722447 299:0.23725445 300:0.76199261 301:0.71691521 302:0.13790356 303:0.13792841 304:0.022269846 305:1.6538189e-291 306:0.73212512 307:0 308:0 309:0.20481928 310:0 311:0.16326531 312:0 313:0.14736842 314:0.22058824 315:0 316:0 317:0 318:0 319:0.11538462 320:0 321:0.034482759 322:0.44444444 323:0.026315789 324:0.24 325:0 326:0 327:0.025974026 328:0.04 329:0.030150754 330:0.46456693 331:0 332:0.32 333:0.15238095 334:0.018072289 335:0.053333333 336:0.045454545 337:0.2601626 338:0.30935252 339:0.4 340:0 341:0.020833333 342:0 343:0.19565217 344:0.37704918 345:0 346:0.12962963 347:0 348:0.12 349:0 350:0.1484375 351:0 352:0 353:0 354:0.26717557 355:0.38596491 356:0 357:0.044444444 358:0.0073529412 359:0 360:0.30769231 361:0 362:0.14876033 363:0.25 364:0.0625 365:0.144 366:0 367:0.15 368:0.027777778 369:0.077669903 370:0.23484848 371:0 372:0.42307692 373:0.53846154 374:0.67857143 375:0.33333333 376:0.4516129 377:0.33333333 378:0.10526316 379:0.2962963 380:0.2195122 381:0.12820513 382:0.30952381 383:0.32258065 384:0.38709677 385:0 386:0.29411765 387:0.0097303154 388:0.41526488 389:0.78777983 390:0.92490868 391:0.63083323 392:0.52747172 393:0.63953508 394:0.077923757 395:0.44185261 396:0.5539417 397:0.30435639 398:0.68425204 399:0.54891054 400:0.55886843 401:0.23540557 402:0.5616674 
0.9302714418088542 0.9156245351512063 0.9142750275204378 0.8972694601723761 0.9630631305453903 0:0.13445378 1:0.27272727 2:0.15 3:0.15 4:0.037735849 5:0.094339623 6:0.11320755 7:0.04 8:0.039215686 9:0.08 10:0.039215686 11:0.02 12:0.10526316 13:0.10526316 14:0.10526316 15:0.11864407 16:0.089285714 17:0.14285714 18:0.125 19:0.16071429 20:0.17857143 21:0.20754717 22:0.26530612 23:0.37777778 24:0.44897959 25:0.42857143 26:0.41666667 27:0.30612245 28:0.34042553 29:0.063829787 30:0 31:0 32:0 33:0 34:0 35:0 36:0.066666667 37:0.073170732 38:0.17073171 39:0.14634146 40:0.12195122 41:0.125 42:0 43:0 44:0.056603774 45:0.057692308 46:0.043478261 47:0.065217391 48:0.084745763 49:0.21311475 50:0.20967742 51:0.95 52:0.91525424 53:0.91525424 54:0.8852459 55:0.016666667 56:0 57:0 58:0.035714286 59:0.043478261 60:0.11428571 61:0.16 62:0.08 63:0.125 64:0.0625 65:0 66:0 67:0.076923077 68:0.057692308 69:0.039215686 70:0.038461538 71:0 72:0.038461538 73:0 74:0.034482759 75:0.068965517 76:0.38596491 77:0.13559322 78:0.12068966 79:0.070175439 80:0.10526316 81:0.14035088 82:0.14035088 83:0.20754717 84:0.65384615 85:0.065217391 86:0.065217391 87:0.045454545 88:0.023809524 89:0 90:0 91:0 92:0.024390244 93:0.093023256 94:0.093023256 95:0.069767442 96:0.025 97:0.05 98:0.078947368 99:0.054054054 100:0.12121212 101:0.17142857 102:0.18918919 103:0.23684211 104:0.26315789 105:0.22857143 106:0.11111111 107:0.083333333 108:0.083333333 109:0.081081081 110:0.11111111 111:0.11764706 112:0.12903226 113:0.11111111 114:0.068965517 115:0.05 116:0.078947368 117:0.047619048 118:0 119:0.22 120:0.2244898 121:0.27272727 122:0.095238095 123:0.13333333 124:0.069767442 125:0.076923077 126:0.088235294 127:0 128:0 129:0.38582677 130:0.20394737 131:0 132:0.4 133:0.57692308 134:0.64285714 135:0.25925926 136:0.48387097 137:0.38888889 138:0.10526316 139:0.45454545 140:0.59259259 141:0.28125 142:0.14814815 143:0.16666667 144:0.25925926 145:0.19230769 146:0.31818182 147:0.31034483 148:0.6875 149:0.84615385 150:0.15384615 151:0.83333333 152:0.16666667 153:0.53846154 154:0.54716981 155:0.95 156:0.86363636 157:1 158:0.9 159:0.13333333 160:0.16666667 161:1 162:1 163:0.25925926 164:0.6 165:0.46666667 166:0.31111111 167:1 168:0.41666667 169:0.55 170:0.57142857 171:0.25925926 172:0.35 173:0.33333333 174:0.23255814 175:0.083333333 176:0.63636364 177:0.81132075 178:1 179:0.4893617 180:0.65853659 181:0.44444444 182:0.28571429 183:0.44444444 184:0.10416667 185:0.91666667 186:0.081632653 187:0.93333333 188:1 189:0.47058824 190:0.28571429 191:0 192:0.34090909 193:0 194:0.48 195:0.27586207 196:0.27777778 197:0.90909091 198:0.48214286 199:0 200:0.018181818 201:0.42857143 202:0.24 203:0.54545455 204:0.31034483 205:0.66666667 206:0.28571429 207:0.66666667 208:0.028571429 209:0.55555556 210:0.93181818 211:0 212:0 213:0.22033898 214:0 215:0.083333333 216:0 217:0.14705882 218:0.086956522 219:0 220:0 221:0 222:0 223:0.05 224:0.25 225:0.021276596 226:0.81481481 227:0 228:0.17647059 229:0 230:0 231:0.16666667 232:0.05 233:0.069767442 234:0.0625 235:0 236:0.034482759 237:0.42857143 238:0 239:0 240:0.0625 241:0.14285714 242:0.69811321 243:0.43478261 244:0.1 245:0.05 246:0.04 247:0.22222222 248:0.42857143 249:0.125 250:0.028571429 251:0.043478261 252:0.16666667 253:0.035714286 254:0.038461538 255:0.2 256:0.032258065 257:0.055555556 258:0.92592593 259:0.6 260:0.125 261:0.17647059 262:0.052631579 263:0.14285714 264:0.25 265:0.088235294 266:0.19148936 267:0.2 268:0.33333333 269:0.18518519 270:0.068965517 271:0.375 272:0.071428571 273:0.11111111 274:0.70909091 275:0.12566981 276:0.090979526 277:0.28916508 278:0.98553074 279:1.4554607e-292 280:0.5699232 281:0.22878837 282:0.69993898 283:0.50288967 284:1.8793696e-291 285:6.2341436e-292 286:0.57770085 287:0.68860836 288:0.48776033 289:0.38554485 290:0.38729966 291:0.64612002 292:0.50001557 293:0.53431922 294:0.033793231 295:0.18023551 296:0.58752336 297:1.2299216e-007 298:0.88724558 299:0.23173838 300:0.96206961 301:0.58293444 302:0.24709736 303:0.07177225 304:0.076806586 305:1.0328644e-291 306:0.81374589 307:0.054054054 308:0 309:0.18072289 310:0 311:0.06122449 312:0 313:0.13684211 314:0.27941176 315:0 316:0 317:0 318:0 319:0 320:0.42857143 321:0.08045977 322:0.49074074 323:0 324:0.17333333 325:0.010869565 326:0.0069444444 327:0 328:0.08 329:0.015075377 330:0.53543307 331:0 332:0.36 333:0.076190476 334:0 335:0.026666667 336:0.090909091 337:0.15447154 338:0.42446043 339:0.24 340:0 341:0.16666667 342:0.0069444444 343:0.2173913 344:0.39344262 345:0.011494253 346:0.25 347:0 348:0.06 349:0 350:0.1953125 351:0 352:0 353:0 354:0.38931298 355:0.31578947 356:0.041666667 357:0.15555556 358:0.0073529412 359:0 360:0 361:0 362:0.14049587 363:0.21875 364:0.3125 365:0.144 366:0 367:0.2 368:0.083333333 369:0.048543689 370:0.31818182 371:0 372:0.42307692 373:0.57692308 374:0.64285714 375:0.25925926 376:0.48387097 377:0.38888889 378:0.10526316 379:0.18518519 380:0.2195122 381:0.17948718 382:0.35714286 383:0.38709677 384:0.48387097 385:0 386:0.35294118 387:0.0097303154 388:0.41526488 389:0.85816099 390:0.87190414 391:0.49369557 392:0.58241669 393:0.72674424 394:0.077923757 395:0.21513759 396:0.49576071 397:0.36717494 398:0.71717538 399:0.59796518 400:0.62367296 401:0.19790121 402:0.62371074 
0.9598948594985162 0.9448102716669469 0.9431042471349775 0.9255842035633314 0.9934656805115157 0:0 1:0.18181818 2:0.1 3:0.2 4:0.075471698 5:0.11320755 6:0.11320755 7:0.04 8:0.058823529 9:0.06 10:0.098039216 11:0.08 12:0.14035088 13:0.14035088 14:0.15789474 15:0.13559322 16:0.16071429 17:0.14285714 18:0.14285714 19:0.21428571 20:0.21428571 21:0.33962264 22:0.36734694 23:0.48888889 24:0.53061224 25:0.40816327 26:0.41666667 27:0.20408163 28:0.14893617 29:0.14893617 30:0.044444444 31:0.047619048 32:0.044444444 33:0.040816327 34:0.10416667 35:0.086956522 36:0.2 37:0.2195122 38:0.19512195 39:0.19512195 40:0.17073171 41:0.041666667 42:0.058823529 43:0.02 44:0.075471698 45:0.096153846 46:0.086956522 47:0.13043478 48:0.13559322 49:0.16393443 50:0.98387097 51:0.98333333 52:0.96610169 53:0.98305085 54:0.06557377 55:0.05 56:0.036363636 57:0.018518519 58:0.071428571 59:0.10869565 60:0.14285714 61:0.2 62:0.2 63:0.1875 64:0.1875 65:0 66:0.26666667 67:0.1025641 68:0.038461538 69:0.019607843 70:0 71:0 72:0.019230769 73:0.018181818 74:0.017241379 75:0.43103448 76:0.42105263 77:0.10169492 78:0.12068966 79:0.087719298 80:0.070175439 81:0.14035088 82:0.15789474 83:0.69811321 84:0.69230769 85:0.7826087 86:0.065217391 87:0 88:0.047619048 89:0.05 90:0.1 91:0.073170732 92:0.048780488 93:0.069767442 94:0.11627907 95:0.11627907 96:0.1 97:0.075 98:0.052631579 99:0.027027027 100:0.060606061 101:0.25714286 102:0.27027027 103:0.26315789 104:0.26315789 105:0.14285714 106:0.11111111 107:0.13888889 108:0.11111111 109:0.081081081 110:0 111:0.088235294 112:0.16129032 113:0.18518519 114:0.27586207 115:0.2 116:0.10526316 117:0.071428571 118:0 119:0 120:0.16326531 121:0.18181818 122:0.14285714 123:0.15555556 124:0.1627907 125:0.076923077 126:0.14705882 127:0 128:0 129:0.30708661 130:0.19736842 131:0 132:0.32 133:0.42307692 134:0.64285714 135:0.33333333 136:0.41935484 137:0.22222222 138:0.052631579 139:0.54545455 140:0.51851852 141:0.25 142:0.18518519 143:0.16666667 144:0.2962963 145:0.11538462 146:0.31818182 147:0.27586207 148:0.64583333 149:0.76923077 150:0.21153846 151:0.83333333 152:0.41666667 153:0.61538462 154:0.58490566 155:0.9 156:0.86363636 157:0.94736842 158:1 159:0.066666667 160:0.14814815 161:1 162:1 163:0.33333333 164:0.65714286 165:0.43333333 166:0.35555556 167:0.72222222 168:0.41666667 169:0.55 170:0.625 171:0.22222222 172:0.4 173:0.33333333 174:0.30232558 175:0.083333333 176:0.61818182 177:0.79245283 178:1 179:1 180:1 181:0.22222222 182:0.73214286 183:0.5 184:0.083333333 185:0.75 186:0.06122449 187:0.86666667 188:0.375 189:0.41176471 190:0.25714286 191:0 192:0.29545455 193:0.92682927 194:1 195:0.27586207 196:1 197:1 198:0.48214286 199:0 200:0.036363636 201:0.5 202:0.22 203:0.63636364 204:0.27586207 205:0.73333333 206:0.71428571 207:0.73333333 208:0.54285714 209:0.61111111 210:1 211:0 212:0 213:0.38983051 214:0.024390244 215:0.083333333 216:0.041666667 217:0.29411765 218:0.13043478 219:0 220:0 221:0 222:0 223:0.1 224:0.25 225:0.021276596 226:0.98148148 227:0.035714286 228:0.23529412 229:0.026315789 230:0.041666667 231:0.16666667 232:0.05 233:0.11627907 234:0.09375 235:0.086956522 236:0.068965517 237:0.54761905 238:0.064516129 239:0.05 240:0.125 241:0.33333333 242:0.58490566 243:0.34782609 244:0.1 245:0.05 246:0.08 247:0.16666667 248:0.35714286 249:0.083333333 250:0.028571429 251:0.086956522 252:0.16666667 253:0.071428571 254:0.076923077 255:0.2 256:0.032258065 257:0.055555556 258:1 259:0.3 260:0.25 261:0.23529412 262:0.052631579 263:0.28571429 264:0.41666667 265:0.17647059 266:0.19148936 267:0.2 268:0.33333333 269:0.25925926 270:0.068965517 271:0.25 272:0.071428571 273:0.14814815 274:0.89090909 275:0.17123855 276:0.00062314744 277:0.42675101 278:0.82617026 279:7.3010201e-292 280:0.25597312 281:0.4052599 282:0.55670021 283:0.58962872 284:1.5314416e-291 285:4.1811423e-292 286:0.59563264 287:0.45837916 288:0.56929802 289:0.47261811 290:0.38598835 291:0.62554811 292:0.23667848 293:0.53731541 294:0.12967031 295:0.20124255 296:0.49349784 297:0.16398884 298:0.76876412 299:0.12337321 300:0.63295122 301:0.8213939 302:0.12365635 303:0.11020788 304:0.01801517 305:1.3526887e-291 306:0.78534276 307:0 308:0 309:0.3253012 310:0 311:0.12244898 312:0 313:0.27368421 314:0.17647059 315:0 316:0 317:0 318:0 319:0.076923077 320:0 321:0.022988506 322:0.55555556 323:0.15789474 324:0.08 325:0 326:0.020833333 327:0 328:0.08 329:0.045226131 330:0.60629921 331:0 332:0.32 333:0.22857143 334:0.048192771 335:0.10666667 336:0 337:0.30081301 338:0.42446043 339:0.3 340:0 341:0.0625 342:0.076388889 343:0.2173913 344:0.26229508 345:0.022988506 346:0.21296296 347:0 348:0.12 349:0.0096153846 350:0.1640625 351:0 352:0 353:0 354:0.38931298 355:0.28070175 356:0.083333333 357:0.17777778 358:0 359:0 360:0.46153846 361:0.030612245 362:0.14049587 363:0.15625 364:0.0625 365:0.192 366:0 367:0 368:0.055555556 369:0.048543689 370:0.34848485 371:0 372:0.34615385 373:0.42307692 374:0.64285714 375:0.33333333 376:0.41935484 377:0.22222222 378:0.052631579 379:0.18518519 380:0.24390244 381:0.38461538 382:0.42857143 383:0.32258065 384:0.38709677 385:0.03125 386:0.35294118 387:0.06243619 388:0.37025002 389:0.66950038 390:0.96760678 391:0.75463805 392:0.5641017 393:0.5862406 394:0.049108954 395:0.17513859 396:0.49576071 397:0.77549554 398:0.7890188 399:0.42962548 400:0.46721632 401:0.21838678 402:0.57404551 
0.6612446098615058 0.6500318860809762 0.6488926903525538 0.6372754202281841 0.6838996353538178 0:0.11344538 1:0.27272727 2:0.2 3:0.3 4:0.1509434 5:0.16981132 6:0.22641509 7:0.24 8:0.25490196 9:0.26 10:0.21568627 11:0.26 12:0.26315789 13:0.31578947 14:0.29824561 15:0.30508475 16:0.30357143 17:0.25 18:0.19642857 19:0.26785714 20:0.35714286 21:0.47169811 22:0.63265306 23:0.66666667 24:0.65306122 25:0.65306122 26:0.60416667 27:0.51020408 28:0.44680851 29:0.29787234 30:0.15555556 31:0.095238095 32:0.11111111 33:0.14285714 34:0.20833333 35:0.23913043 36:0.28888889 37:0.36585366 38:0.34146341 39:0.24390244 40:0.19512195 41:0.16666667 42:0.078431373 43:0.06 44:0.13207547 45:0.13461538 46:0.15217391 47:0.15217391 48:0.27118644 49:0.98360656 50:0.96774194 51:0.95 52:0.93220339 53:0.91525424 54:0.098360656 55:0.066666667 56:0.054545455 57:0.055555556 58:0.10714286 59:0.13043478 60:0.17142857 61:0.24 62:0.2 63:0.25 64:0.125 65:0 66:0.26666667 67:0.15384615 68:0.076923077 69:0.058823529 70:0.076923077 71:0.057692308 72:0.096153846 73:0.072727273 74:0.43103448 75:0.46551724 76:0.47368421 77:0.47457627 78:0.20689655 79:0.14035088 80:0.21052632 81:0.24561404 82:0.33333333 83:0.81132075 84:0.84615385 85:0.91304348 86:0.2826087 87:0.22727273 88:0.23809524 89:0.2 90:0.325 91:0.34146341 92:0.26829268 93:0.27906977 94:0.27906977 95:0.20930233 96:0.2 97:0.2 98:0.21052632 99:0.18918919 100:0.27272727 101:0.34285714 102:0.35135135 103:0.42105263 104:0.39473684 105:0.4 106:0.33333333 107:0.30555556 108:0.27777778 109:0.21621622 110:0.22222222 111:0.29411765 112:0.29032258 113:0.33333333 114:0.31034483 115:0.225 116:0.18421053 117:0.14285714 118:0.10638298 119:0.3 120:0.26530612 121:0.27272727 122:0.071428571 123:0.17777778 124:0.13953488 125:0.1025641 126:0.088235294 127:0 128:0 129:0.40944882 130:0.26315789 131:0.090909091 132:0.4 133:0.61538462 134:0.67857143 135:0.2962963 136:0.48387097 137:0.33333333 138:0.10526316 139:0.68181818 140:0.55555556 141:0.21875 142:0.33333333 143:0.26666667 144:0.33333333 145:0.076923077 146:0.31818182 147:0.24137931 148:0.020833333 149:0.69230769 150:0.11538462 151:0.75 152:0.16666667 153:0.53846154 154:0.13207547 155:0.9 156:0.77272727 157:0.052631579 158:0.4 159:0.066666667 160:0.14814815 161:0.9375 162:1 163:0.25925926 164:0.34285714 165:0.43333333 166:0.28888889 167:0.61111111 168:0.41666667 169:0.5 170:0.51785714 171:0.25925926 172:0.35 173:0.33333333 174:0.27906977 175:0.125 176:0.87272727 177:0.79245283 178:1 179:0.4893617 180:0.58536585 181:0.22222222 182:0.25 183:0.27777778 184:0.0625 185:0.83333333 186:0.06122449 187:0.8 188:0.33333333 189:0.35294118 190:0.22857143 191:0 192:0.29545455 193:0 194:0.44 195:0.27586207 196:0.25 197:0.27272727 198:0.053571429 199:0 200:0.036363636 201:0.5 202:0.2 203:0.63636364 204:0.27586207 205:0.73333333 206:0.35714286 207:0.73333333 208:0.54285714 209:0.61111111 210:0.95454545 211:0.25 212:0.16666667 213:0.37288136 214:0.073170732 215:0.25 216:0.125 217:0.44117647 218:0.2173913 219:0.15 220:0.46153846 221:0.098360656 222:0.11666667 223:0.15 224:0.375 225:0.042553191 226:0.88888889 227:0.071428571 228:0.82352941 229:0.10526316 230:0.10416667 231:0.33333333 232:0.25 233:0.25581395 234:0.1875 235:0.086956522 236:0.10344828 237:0.54761905 238:0.12903226 239:0.1 240:0.1875 241:0.35714286 242:0.62264151 243:0.65217391 244:0.2 245:0.15 246:0.14 247:0.38888889 248:0.85714286 249:0.20833333 250:0.17142857 251:0.13043478 252:0.27777778 253:0.10714286 254:0.15384615 255:0.3 256:0.064516129 257:0.11111111 258:0.96296296 259:0.9 260:0.25 261:0.23529412 262:0.070175439 263:0.35714286 264:0.5 265:0.17647059 266:0.29787234 267:0.3 268:0.5 269:0.2962963 270:0.10344828 271:0.5 272:0.14285714 273:0.22222222 274:0.98181818 275:0.17422047 276:2.6744525e-006 277:0.61026022 278:0.58840019 279:3.2732723e-292 280:0.98094541 281:0.35528774 282:0.43617094 283:0.65693556 284:3.2893952e-291 285:9.9338481e-293 286:0.37531483 287:0.80795033 288:0.25155476 289:0.32655563 290:0.43141298 291:0.50103922 292:0.92982985 293:0.42389955 294:0.076881479 295:0.21865587 296:0.98757334 297:0.28206219 298:0.50350713 299:0.19109015 300:0.83380013 301:0.67557154 302:0.19291848 303:0.10320239 304:5.176773e-005 305:1.203614e-291 306:0.81372247 307:0.081081081 308:0 309:0.63855422 310:0 311:0.10204082 312:0 313:0.58947368 314:0.20588235 315:0 316:0 317:0.038095238 318:0.032608696 319:0.19230769 320:0 321:0.068965517 322:0.67592593 323:0 324:0.82666667 325:0.043478261 326:0.020833333 327:0.038961039 328:0.68 329:0.13567839 330:0.61417323 331:0 332:0.4 333:0.22857143 334:0.12650602 335:0.08 336:0 337:0.32520325 338:0.53956835 339:0.45 340:0 341:0.041666667 342:0.055555556 343:0.39130435 344:0.83606557 345:0 346:0.26851852 347:0 348:0.32 349:0 350:0.25 351:0 352:0 353:0 354:0.51145038 355:0.57894737 356:0 357:0 358:0.036764706 359:0 360:0.30769231 361:0 362:0.23140496 363:0.34375 364:0.125 365:0.288 366:0.011363636 367:0 368:0 369:0 370:0.39393939 371:0.090909091 372:0.42307692 373:0.61538462 374:0.67857143 375:0.2962963 376:0.48387097 377:0.33333333 378:0.10526316 379:0.55555556 380:0.2195122 381:0.12820513 382:0.35714286 383:0.29032258 384:0.35483871 385:0.09375 386:0.20588235 387:0.10157953 388:0.39784671 389:0.89626544 390:0.89756239 391:0.52950859 392:0.55511919 393:0.60287391 394:0.071316541 395:0.81254749 396:0.50279655 397:0.25322501 398:0.7239438 399:0.43882774 400:0.47947535 401:0.3753158 402:0.35075988 
0.723554141773095 0.7119886706843883 0.7109771254119656 0.697839349347769 0.7490651123671689 0:0.20168067 1:0.36363636 2:0.2 3:0.25 4:0.1509434 5:0.18867925 6:0.20754717 7:0.24 8:0.2745098 9:0.28 10:0.2745098 11:0.28 12:0.29824561 13:0.33333333 14:0.35087719 15:0.33898305 16:0.33928571 17:0.26785714 18:0.25 19:0.28571429 20:0.375 21:0.49056604 22:0.73469388 23:0.68888889 24:0.65306122 25:0.63265306 26:0.5625 27:0.48979592 28:0.5106383 29:0.31914894 30:0.15555556 31:0.14285714 32:0.13333333 33:0.18367347 34:0.22916667 35:0.30434783 36:0.28888889 37:0.41463415 38:0.31707317 39:0.2195122 40:0.2195122 41:0.16666667 42:0.1372549 43:0.1 44:0.16981132 45:0.15384615 46:0.17391304 47:0.17391304 48:0.98305085 49:0.98360656 50:0.96774194 51:0.95 52:0.91525424 53:0.93220339 54:0.1147541 55:0.083333333 56:0.090909091 57:0.074074074 58:0.125 59:0.15217391 60:0.2 61:0.28 62:0.28 63:0.375 64:0.125 65:0 66:0.26666667 67:0.15384615 68:0.076923077 69:0.058823529 70:0.076923077 71:0.057692308 72:0.13461538 73:0.090909091 74:0.44827586 75:0.51724138 76:0.49122807 77:0.47457627 78:0.48275862 79:0.1754386 80:0.24561404 81:0.31578947 82:0.33333333 83:0.83018868 84:0.84615385 85:0.89130435 86:0.89130435 87:0.25 88:0.28571429 89:0.3 90:0.3 91:0.3902439 92:0.29268293 93:0.30232558 94:0.27906977 95:0.25581395 96:0.275 97:0.225 98:0.21052632 99:0.21621622 100:0.3030303 101:0.4 102:0.43243243 103:0.47368421 104:0.47368421 105:0.45714286 106:0.33333333 107:0.33333333 108:0.33333333 109:0.21621622 110:0.22222222 111:0.32352941 112:0.32258065 113:0.44444444 114:0.37931034 115:0.3 116:0.21052632 117:0.16666667 118:0.10638298 119:0.28 120:0.26530612 121:0.27272727 122:0.071428571 123:0.15555556 124:0.1627907 125:0.12820513 126:0.058823529 127:0 128:0 129:0.39370079 130:0.26315789 131:0.090909091 132:0.36 133:0.61538462 134:0.64285714 135:0.25925926 136:0.51612903 137:0.33333333 138:0.10526316 139:0.72727273 140:0.55555556 141:0.1875 142:0.40740741 143:0.26666667 144:0.25925926 145:0.076923077 146:0.31818182 147:0.24137931 148:0 149:0.69230769 150:0.11538462 151:0.75 152:0.5 153:0.53846154 154:0.13207547 155:0.9 156:0.72727273 157:0.052631579 158:0.86666667 159:0.066666667 160:0.14814815 161:0.9375 162:1 163:0.25925926 164:0.34285714 165:0.43333333 166:0.28888889 167:0.61111111 168:0.41666667 169:0.5 170:0.51785714 171:0.25925926 172:0.325 173:0.33333333 174:0.27906977 175:0.125 176:0.87272727 177:0.77358491 178:1 179:0.4893617 180:0.58536585 181:0.22222222 182:0.69642857 183:0.22222222 184:0.0625 185:0.75 186:0.081632653 187:0.8 188:0.91666667 189:0.41176471 190:0.22857143 191:0 192:0.27272727 193:0 194:0.44 195:0.27586207 196:0.19444444 197:0.18181818 198:0.053571429 199:0 200:0.036363636 201:0.5 202:0.2 203:0.63636364 204:0.27586207 205:0.73333333 206:0.39285714 207:0.73333333 208:0.54285714 209:0.61111111 210:0.95454545 211:0.25 212:0.25 213:0.38983051 214:0.073170732 215:0.33333333 216:0.16666667 217:0.5 218:0.26086957 219:0.25 220:0.46153846 221:0.098360656 222:1 223:0.2 224:0.375 225:0.063829787 226:0.87037037 227:0.10714286 228:0.82352941 229:0.13157895 230:0.125 231:0.33333333 232:0.3 233:0.30232558 234:0.21875 235:0.13043478 236:0.13793103 237:0.52380952 238:0.38709677 239:0.2 240:0.25 241:0.42857143 242:0.58490566 243:0.56521739 244:0.3 245:0.15 246:0.14 247:0.33333333 248:0.85714286 249:0.25 250:0.2 251:0.13043478 252:0.22222222 253:0.14285714 254:0.5 255:0.4 256:0.096774194 257:0.16666667 258:0.96296296 259:0.7 260:0.25 261:0.23529412 262:0.070175439 263:0.35714286 264:0.5 265:0.17647059 266:0.29787234 267:0.4 268:0.5 269:0.25925926 270:0.48275862 271:0.5 272:0.14285714 273:0.22222222 274:0.98181818 275:0.19128175 276:1.0246944e-008 277:0.62962423 278:0.55321266 279:3.5693042e-292 280:0.90946271 281:0.39354131 282:0.41447117 283:0.53060162 284:3.4714334e-291 285:3.2336376e-292 286:0.3984516 287:0.75179003 288:0.19899316 289:0.29817202 290:0.48492504 291:0.39761623 292:0.89739171 293:0.54030032 294:0.089196163 295:0.19346843 296:0.9999978 297:0.36335877 298:0.44459931 299:0.19076885 300:0.74736741 301:0.51987663 302:0.38403972 303:0.15357623 304:1.4340091e-007 305:1.3358813e-291 306:0.77938583 307:0 308:0 309:0.77108434 310:0 311:0.10204082 312:0 313:0.75789474 314:0.13235294 315:0 316:0 317:0 318:0.16304348 319:0.42307692 320:0 321:0.011494253 322:0.67592593 323:0.026315789 324:0.85333333 325:0.043478261 326:0.055555556 327:0.051948052 328:0.68 329:0.15577889 330:0.59055118 331:0 332:0.44 333:0.28571429 334:0.19879518 335:0.08 336:0 337:0.42276423 338:0.53956835 339:0.39 340:0 341:0.125 342:0.0625 343:0.32608696 344:0.90163934 345:0 346:0.26851852 347:0 348:0.4 349:0.0096153846 350:0.3671875 351:0 352:0 353:0 354:0.51145038 355:0.50877193 356:0 357:0.15555556 358:0.022058824 359:0 360:0.30769231 361:0 362:0.24793388 363:0.4375 364:0.0625 365:0.224 366:0.14772727 367:0 368:0 369:0 370:0.39393939 371:0.090909091 372:0.38461538 373:0.61538462 374:0.64285714 375:0.25925926 376:0.51612903 377:0.33333333 378:0.10526316 379:0.59259259 380:0.24390244 381:0.28205128 382:0.45238095 383:0.29032258 384:0.38709677 385:0.15625 386:0.17647059 387:0.11255778 388:0.35906891 389:0.91764442 390:0.86301306 391:0.48307846 392:0.6277906 393:0.62715701 394:0.075692934 395:0.76315433 396:0.4627322 397:0.50268746 398:0.79604761 399:0.34346219 400:0.44120152 401:0.41306234 402:0.22996307 
0.9184012814987843 0.9045839870855555 0.9025649538332075 0.8865458745162701 0.9507279684666006 0:0.24789916 1:0.27272727 2:0.15 3:0.35 4:0.13207547 5:0.20754717 6:0.18867925 7:0.26 8:0.25490196 9:0.26 10:0.19607843 11:0.2 12:0.28070175 13:0.28070175 14:0.31578947 15:0.28813559 16:0.32142857 17:0.32142857 18:0.21428571 19:0.25 20:0.32142857 21:0.33962264 22:0.65306122 23:0.62222222 24:0.69387755 25:0.69387755 26:0.72916667 27:0.65306122 28:0.65957447 29:0.44680851 30:0.46666667 31:0.11904762 32:0.11111111 33:0.14285714 34:0.125 35:0.26086957 36:0.24444444 37:0.34146341 38:0.41463415 39:0.34146341 40:0.36585366 41:0.3125 42:0.29411765 43:0.28 44:0.16981132 45:0.15384615 46:0.19565217 47:0.19565217 48:0.33898305 49:0.36065574 50:1 51:1 52:0.94915254 53:0.96610169 54:0.90163934 55:0.9 56:0.072727273 57:0.037037037 58:0.071428571 59:0.13043478 60:0.17142857 61:0.24 62:0.24 63:0.25 64:0.25 65:0.13333333 66:0.13333333 67:0.20512821 68:0.076923077 69:0.058823529 70:0.076923077 71:0.096153846 72:0.13461538 73:0.10909091 74:0.44827586 75:0.44827586 76:0.50877193 77:0.52542373 78:0.24137931 79:0.22807018 80:0.26315789 81:0.26315789 82:0.71929825 83:0.79245283 84:0.82692308 85:0.93478261 86:0.30434783 87:0.20454545 88:0.19047619 89:0.225 90:0.225 91:0.34146341 92:0.31707317 93:0.37209302 94:0.34883721 95:0.23255814 96:0.225 97:0.3 98:0.28947368 99:0.27027027 100:0.33333333 101:0.4 102:0.43243243 103:0.5 104:0.52631579 105:0.54285714 106:0.38888889 107:0.33333333 108:0.36111111 109:0.32432432 110:0.30555556 111:0.41176471 112:0.38709677 113:0.44444444 114:0.34482759 115:0.25 116:0.26315789 117:0.23809524 118:0.38297872 119:0.34 120:0.32653061 121:0.36363636 122:0.30952381 123:0.22222222 124:0.23255814 125:0.1025641 126:0.17647059 127:0.058823529 128:0.11111111 129:0.41732283 130:0.25 131:0.27272727 132:0.44 133:0.46153846 134:0.64285714 135:0.25925926 136:0.48387097 137:0.38888889 138:0.26315789 139:0.63636364 140:0.55555556 141:0.1875 142:0.2962963 143:0.26666667 144:0.37037037 145:0.076923077 146:0.31818182 147:0.24137931 148:0.020833333 149:0.69230769 150:0.11538462 151:0.75 152:0.16666667 153:0.46153846 154:0.11320755 155:0.85 156:0.81818182 157:0.10526316 158:0.36666667 159:0 160:0.12962963 161:0.9375 162:1 163:0.22222222 164:0.4 165:0.36666667 166:0.33333333 167:0.61111111 168:0.47222222 169:0.45 170:0.46428571 171:0.22222222 172:0.325 173:0 174:0.20930233 175:0 176:0.61818182 177:0.79245283 178:1 179:0.5106383 180:0.58536585 181:0.22222222 182:0.26785714 183:0.33333333 184:0.083333333 185:0.91666667 186:0.081632653 187:0.86666667 188:0.95833333 189:0.35294118 190:0.28571429 191:0 192:0.31818182 193:0 194:0.44 195:0.27586207 196:0.22222222 197:0.18181818 198:0.017857143 199:0 200:0 201:0.35714286 202:0.18 203:0.45454545 204:0.24137931 205:0.6 206:0.25 207:0.6 208:0.51428571 209:0.5 210:0.90909091 211:0.25 212:0.16666667 213:0.33898305 214:0.073170732 215:0.25 216:0.16666667 217:0.47058824 218:0.26086957 219:0.2 220:0.53846154 221:0.13114754 222:0.11666667 223:0.2 224:0.5 225:0.063829787 226:0.92592593 227:0.035714286 228:0.76470588 229:0.078947368 230:0.10416667 231:0.375 232:0.25 233:0.37209302 234:0.3125 235:0.13043478 236:0.13793103 237:0.64285714 238:0.12903226 239:0.2 240:0.25 241:0.45238095 242:0.67924528 243:0.52173913 244:0.3 245:0.2 246:0.16 247:0.38888889 248:0.78571429 249:0.25 250:0.28571429 251:0.17391304 252:0.27777778 253:0.14285714 254:0.19230769 255:0.4 256:0.096774194 257:0.16666667 258:0.96296296 259:0.8 260:0.25 261:0.29411765 262:0.087719298 263:0.35714286 264:0.58333333 265:0.17647059 266:0.31914894 267:0.5 268:0.66666667 269:0.37037037 270:0.17241379 271:0.625 272:0.21428571 273:0.2962963 274:0.87272727 275:0.134354 276:0.2089686 277:0.50520549 278:0.64486347 279:3.3895784e-292 280:0.65085548 281:0.425664 282:0.45641816 283:0.37046067 284:2.2159599e-291 285:6.3733854e-292 286:0.60834774 287:0.66961703 288:0.12818749 289:0.41047236 290:0.43329968 291:0.4842414 292:0.69080727 293:0.51180715 294:0.10726435 295:0.14310133 296:0.67660652 297:0.33404809 298:0.59660949 299:0.099657541 300:0.63298244 301:0.73155329 302:0.22750797 303:0.054734101 304:0.043901893 305:1.0429058e-291 306:0.83128867 307:0.21621622 308:0 309:0.61445783 310:0.011627907 311:0 312:0.014925373 313:0.62105263 314:0.27941176 315:0 316:0.22222222 317:0.0095238095 318:0 319:0.11538462 320:1 321:0.011494253 322:0.81481481 323:0 324:0.6 325:0.032608696 326:0.041666667 327:0.077922078 328:0.44 329:0.22110553 330:0.59055118 331:0 332:0.28 333:0.30952381 334:0.14457831 335:0.053333333 336:0 337:0.32520325 338:0.6618705 339:0.28 340:0 341:0.22916667 342:0.083333333 343:0.2826087 344:0.6557377 345:0.011494253 346:0.59259259 347:0 348:0.24 349:0.028846154 350:0.3984375 351:0 352:0 353:0 354:0.63358779 355:0.71929825 356:0 357:0.11111111 358:0.022058824 359:0 360:0.23076923 361:0 362:0.30578512 363:0.21875 364:0.0625 365:0.408 366:0.045454545 367:0 368:0 369:0.067961165 370:0.53030303 371:0.27272727 372:0.46153846 373:0.46153846 374:0.64285714 375:0.25925926 376:0.48387097 377:0.38888889 378:0.26315789 379:0.51851852 380:0.29268293 381:0.28205128 382:0.52380952 383:0.29032258 384:0.51612903 385:0.0625 386:0.35294118 387:0.30755187 388:0.44154729 389:0.61138148 390:0.83701508 391:0.45203349 392:0.54625038 393:0.67596423 394:0.21360865 395:0.58681742 396:0.50209002 397:0.4286793 398:0.84790444 399:0.28218426 400:0.5277948 401:0.20774114 402:0.48988476 
0.8914948020597138 0.8777630468139726 0.8766548297950523 0.8597577306517302 0.9228728622561794 0:0.10504202 1:0.27272727 2:0.15 3:0.15 4:0.075471698 5:0.075471698 6:0.20754717 7:0.16 8:0.17647059 9:0.2 10:0.19607843 11:0.18 12:0.21052632 13:0.24561404 14:0.22807018 15:0.27118644 16:0.23214286 17:0.23214286 18:0.14285714 19:0.17857143 20:0.17857143 21:0.37735849 22:0.40816327 23:0.62222222 24:0.65306122 25:0.65306122 26:0.5 27:0.53061224 28:0.57446809 29:0.31914894 30:0.28888889 31:0.071428571 32:0.066666667 33:0.06122449 34:0.041666667 35:0.17391304 36:0.15555556 37:0.17073171 38:0.34146341 39:0.29268293 40:0.14634146 41:0.14583333 42:0.15686275 43:0.06 44:0.11320755 45:0.096153846 46:0.13043478 47:0.13043478 48:0.98305085 49:0.98360656 50:0.96774194 51:0.93333333 52:0.94915254 53:0.96610169 54:0.91803279 55:0.05 56:0.090909091 57:0.074074074 58:0.10714286 59:0.13043478 60:0.17142857 61:0.24 62:0.2 63:0.125 64:0.125 65:0 66:0 67:0.17948718 68:0.057692308 69:0.078431373 70:0.096153846 71:0.096153846 72:0.13461538 73:0.090909091 74:0.068965517 75:0.48275862 76:0.47368421 77:0.23728814 78:0.24137931 79:0.24561404 80:0.26315789 81:0.26315789 82:0.26315789 83:0.32075472 84:0.84615385 85:0.93478261 86:0.2826087 87:0.22727273 88:0.21428571 89:0.225 90:0.225 91:0.19512195 92:0.34146341 93:0.34883721 94:0.23255814 95:0.20930233 96:0.2 97:0.225 98:0.21052632 99:0.18918919 100:0.42424242 101:0.42857143 102:0.35135135 103:0.39473684 104:0.39473684 105:0.4 106:0.38888889 107:0.38888889 108:0.19444444 109:0.16216216 110:0.22222222 111:0.32352941 112:0.35483871 113:0.40740741 114:0.48275862 115:0.35 116:0.34210526 117:0.16666667 118:0.19148936 119:0.28 120:0.26530612 121:0.29545455 122:0.071428571 123:0.22222222 124:0.20930233 125:0.076923077 126:0.14705882 127:0 128:0 129:0.39370079 130:0.25 131:0 132:0.48 133:0.53846154 134:0.64285714 135:0.25925926 136:0.51612903 137:0.33333333 138:0.10526316 139:0.63636364 140:0.59259259 141:0.21875 142:0.37037037 143:0.23333333 144:0.25925926 145:0.076923077 146:0.31818182 147:0.27586207 148:0.0625 149:0.76923077 150:0.13461538 151:0.83333333 152:0.66666667 153:0.53846154 154:0.13207547 155:0.95 156:0.86363636 157:0.10526316 158:0.86666667 159:0.13333333 160:0.14814815 161:0.9375 162:1 163:0.25925926 164:0.4 165:0.4 166:0.28888889 167:0.66666667 168:0.41666667 169:0.5 170:0.48214286 171:0.25925926 172:0.325 173:0.33333333 174:0.25581395 175:0.083333333 176:0.87272727 177:0.79245283 178:1 179:0.4893617 180:0.58536585 181:0.33333333 182:0.25 183:0.27777778 184:0.083333333 185:1 186:0.10204082 187:0.93333333 188:0.95833333 189:0.47058824 190:0.25714286 191:0 192:0.29545455 193:0 194:0.46 195:0.24137931 196:0.22222222 197:0.27272727 198:0.035714286 199:0 200:0.018181818 201:0.42857143 202:0.22 203:0.54545455 204:0.27586207 205:0.66666667 206:0.35714286 207:0.66666667 208:0.51428571 209:0.55555556 210:0.93181818 211:0.16666667 212:0.083333333 213:0.27118644 214:0.048780488 215:0.16666667 216:0.083333333 217:0.29411765 218:0.2173913 219:0.25 220:0.53846154 221:0.1147541 222:1 223:0.25 224:0.5 225:0.085106383 226:0.90740741 227:0.071428571 228:0.35294118 229:0.078947368 230:0.083333333 231:0.16666667 232:0.15 233:0.20930233 234:0.15625 235:0.13043478 236:0.10344828 237:0.45238095 238:0.48387097 239:0.2 240:0.25 241:0.28571429 242:0.71698113 243:0.30434783 244:0.2 245:0.1 246:0.08 247:0.27777778 248:0.64285714 249:0.20833333 250:0.17142857 251:0.13043478 252:0.22222222 253:0.10714286 254:0.5 255:0.5 256:0.12903226 257:0.22222222 258:0.96296296 259:0.4 260:0.25 261:0.29411765 262:0.070175439 263:0.35714286 264:0.5 265:0.20588235 266:0.27659574 267:0.5 268:0.5 269:0.2962963 270:0.51724138 271:0.625 272:0.21428571 273:0.25925926 274:0.98181818 275:0.29259272 276:0.072739572 277:0.24485687 278:0.94751867 279:3.1699703e-292 280:0.69964591 281:0.31899971 282:0.55379908 283:0.25248723 284:2.5665266e-291 285:9.0252753e-292 286:0.60157596 287:0.54095637 288:0.32410355 289:0.3157445 290:0.52622417 291:0.39436733 292:0.80508857 293:0.5776405 294:0.097759522 295:0.11957166 296:0.82510052 297:0.18144637 298:0.68997681 299:0.16514299 300:0.68012951 301:0.44856041 302:0.49307389 303:0.12189612 304:0.026322367 305:7.0413515e-292 306:0.85805241 307:0.16216216 308:0.057142857 309:0.30120482 310:0.023255814 311:0.14285714 312:0 313:0.28421053 314:0.35294118 315:0 316:0 317:0 318:0.15217391 319:0.26923077 320:0.28571429 321:0.022988506 322:0.77777778 323:0 324:0.49333333 325:0.15217391 326:0.034722222 327:0 328:0.52 329:0.12060302 330:0.53543307 331:0 332:0.24 333:0.14761905 334:0.19277108 335:0.10666667 336:0.090909091 337:0.23577236 338:0.65467626 339:0.19 340:0.058823529 341:0.20833333 342:0.048611111 343:0.13043478 344:0.57377049 345:0.068965517 346:0.47222222 347:0 348:0.36 349:0.028846154 350:0.3125 351:0 352:0 353:0 354:0.63358779 355:0.43859649 356:0.083333333 357:0.31111111 358:0.014705882 359:0 360:0.53846154 361:0.010204082 362:0.24793388 363:0.3125 364:0 365:0.216 366:0.15909091 367:0 368:0 369:0 370:0.52272727 371:0 372:0.5 373:0.53846154 374:0.64285714 375:0.25925926 376:0.51612903 377:0.33333333 378:0.10526316 379:0.48148148 380:0.29268293 381:0.41025641 382:0.66666667 383:0.32258065 384:0.58064516 385:0.125 386:0.23529412 387:0.0048337696 388:0.51001389 389:0.77779025 390:0.86301306 391:0.48307846 392:0.6277906 393:0.62715701 394:0.075692934 395:0.47025547 396:0.43525248 397:0.61543387 398:1 399:0.26835209 400:0.53740517 401:0.2635206 402:0.24234535 
0.9780466003137756 0.9626404970287634 0.9613992678112655 0.9436568577312029 1.012755783284056 0:0.033613445 1:0.36363636 2:0.2 3:0.2 4:0.075471698 5:0.11320755 6:0.1509434 7:0.14 8:0.1372549 9:0.14 10:0.19607843 11:0.2 12:0.26315789 13:0.31578947 14:0.31578947 15:0.30508475 16:0.28571429 17:0.32142857 18:0.28571429 19:0.26785714 20:0.26785714 21:0.37735849 22:0.69387755 23:0.66666667 24:0.69387755 25:0.69387755 26:0.70833333 27:0.6122449 28:0.55319149 29:0.5106383 30:0.46666667 31:0.14285714 32:0 33:0.020408163 34:0 35:0.17391304 36:0.22222222 37:0.26829268 38:0.2195122 39:0.17073171 40:0.19512195 41:0.1875 42:0.19607843 43:0.18 44:0.13207547 45:0.13461538 46:0.15217391 47:0.19565217 48:0.3220339 49:0.96721311 50:0.9516129 51:0.95 52:0.94915254 53:0.93220339 54:0.90163934 55:0.86666667 56:0.21818182 57:0.16666667 58:0.125 59:0.15217391 60:0.2 61:0.28 62:0.28 63:0.375 64:0.25 65:0 66:0 67:0.15384615 68:0.076923077 69:0.058823529 70:0.076923077 71:0.11538462 72:0.17307692 73:0.14545455 74:0.12068966 75:0.20689655 76:0.45614035 77:0.50847458 78:0.55172414 79:0.35087719 80:0.38596491 81:0.36842105 82:0.36842105 83:0.41509434 84:0.46153846 85:0.7826087 86:0.80434783 87:0.36363636 88:0.4047619 89:0.35 90:0.3 91:0.29268293 92:0.31707317 93:0.34883721 94:0.3255814 95:0.3255814 96:0.3 97:0.3 98:0.26315789 99:0.27027027 100:0.39393939 101:0.45714286 102:0.48648649 103:0.55263158 104:0.52631579 105:0.45714286 106:0.38888889 107:0.36111111 108:0.38888889 109:0.32432432 110:0.27777778 111:0.35294118 112:0.41935484 113:0.51851852 114:0.4137931 115:0.3 116:0.23684211 117:0.23809524 118:0.31914894 119:0.3 120:0.26530612 121:0.25 122:0.095238095 123:0.17777778 124:0.1627907 125:0.12820513 126:0 127:0 128:0 129:0.32283465 130:0.16447368 131:0.090909091 132:0.44 133:0.5 134:0.53571429 135:0.25925926 136:0.41935484 137:0.27777778 138:0.052631579 139:0.45454545 140:0.55555556 141:0.15625 142:0.22222222 143:0.13333333 144:0.37037037 145:0 146:0.31818182 147:0.27586207 148:0.66666667 149:0.76923077 150:0.13461538 151:0.83333333 152:0.75 153:0.46153846 154:0.45283019 155:1 156:0.86363636 157:0.15789474 158:0.4 159:0.13333333 160:1 161:0.8125 162:1 163:0.25925926 164:0.54285714 165:0.4 166:0.26666667 167:0.72222222 168:0.38888889 169:0.55 170:0.44642857 171:0.2962963 172:0.4 173:0.5 174:0.25581395 175:0.125 176:1 177:0.73584906 178:1 179:0.5106383 180:0.58536585 181:0.44444444 182:0.21428571 183:0.5 184:0.083333333 185:0.83333333 186:0.10204082 187:0.86666667 188:0.95833333 189:0.47058824 190:0.25714286 191:0 192:0.27272727 193:0 194:0.52 195:0.27586207 196:0.16666667 197:0.090909091 198:0.44642857 199:0 200:0.45454545 201:0.28571429 202:0.18 203:0.45454545 204:0.24137931 205:0.6 206:0.42857143 207:0.6 208:0.51428571 209:0.5 210:0.93181818 211:0.16666667 212:0.16666667 213:0.30508475 214:0.048780488 215:0.33333333 216:0.125 217:0.35294118 218:0.39130435 219:0.2 220:1 221:0.13114754 222:0.1 223:0.25 224:0.875 225:0.10638298 226:0.88888889 227:0.10714286 228:0.82352941 229:0.15789474 230:0.125 231:0.375 232:0.3 233:0.13953488 234:0.34375 235:0.13043478 236:0.10344828 237:0.38095238 238:0.12903226 239:0.35 240:0.4375 241:0.28571429 242:0.66037736 243:0.60869565 244:0.2 245:0.2 246:0.1 247:0.44444444 248:0.85714286 249:0.29166667 250:0.25714286 251:0.13043478 252:0.27777778 253:0.17857143 254:0.11538462 255:0.5 256:0.12903226 257:0.22222222 258:0.94444444 259:0.75 260:0.25 261:0.23529412 262:0.070175439 263:0.35714286 264:0.66666667 265:0.20588235 266:0.31914894 267:0.6 268:0.66666667 269:0.2962963 270:0.17241379 271:0.75 272:0.21428571 273:0.2962963 274:0.96363636 275:0.088233423 276:0.18370568 277:0.33628221 278:0.89695057 279:5.2002239e-292 280:0.67639512 281:0.24605296 282:0.61687657 283:0.49045111 284:3.1136209e-291 285:6.3209868e-292 286:0.42748605 287:0.77311413 288:0.22011905 289:0.31332295 290:0.46007365 291:0.5162743 292:0.95675534 293:0.41650688 294:0.062279994 295:0.24862307 296:0.92358671 297:0.065325475 298:0.68846995 299:0.31918952 300:0.61275329 301:0.62981031 302:0.24379224 303:0.027944257 304:0.044785228 305:1.0249426e-291 306:0.84224226 307:0.054054054 308:0 309:0.40963855 310:0.069767442 311:0.081632653 312:0 313:0.44210526 314:0.51470588 315:0 316:0.22222222 317:0 318:0 319:0.038461538 320:0.85714286 321:0.045977011 322:0.91666667 323:0.026315789 324:0.69333333 325:0.010869565 326:0 327:0.14285714 328:0.32 329:0.0050251256 330:0.90551181 331:0 332:0.08 333:0.17142857 334:0.13253012 335:0.04 336:0.090909091 337:0.39837398 338:0.78417266 339:0.37 340:0.11764706 341:0.083333333 342:0.020833333 343:0.39130435 344:1 345:0.034482759 346:0.38888889 347:0 348:0.22 349:0.076923077 350:0.265625 351:0 352:0 353:0 354:0.75572519 355:0.54385965 356:0 357:0.22222222 358:0.014705882 359:0 360:0.46153846 361:0 362:0.21487603 363:0.53125 364:0 365:0.248 366:0.011363636 367:0 368:0 369:0 370:0.56060606 371:0.090909091 372:0.46153846 373:0.5 374:0.53571429 375:0.25925926 376:0.41935484 377:0.27777778 378:0.052631579 379:0.14814815 380:0.24390244 381:0.1025641 382:0.26190476 383:0.29032258 384:0.29032258 385:0.03125 386:0.20588235 387:0.16568195 388:0.51862947 389:0.79838521 390:0.77969076 391:0.58386827 392:0.54478315 393:0.65267619 394:0.044766997 395:0.26445968 396:0.71186154 397:0.33384265 398:0.67699547 399:0.59004331 400:0.51363752 401:0.36061519 402:0.45910598 
0.769901908402008 0.7575529049957078 0.7562911507326313 0.7428286034728168 0.7969586741694781 0:0.021008403 1:0.36363636 2:0.25 3:0.5 4:0.22641509 5:0.22641509 6:0.28301887 7:0.28 8:0.31372549 9:0.36 10:0.37254902 11:0.34 12:0.36842105 13:0.38596491 14:0.36842105 15:0.37288136 16:0.35714286 17:0.32142857 18:0.26785714 19:0.30357143 20:0.35714286 21:0.47169811 22:0.69387755 23:0.77777778 24:0.79591837 25:0.75510204 26:0.6875 27:0.6122449 28:0.57446809 29:0.46808511 30:0.22222222 31:0.28571429 32:0.2 33:0.18367347 34:0.22916667 35:0.30434783 36:0.33333333 37:0.43902439 38:0.41463415 39:0.34146341 40:0.34146341 41:0.27083333 42:0.19607843 43:0.12 44:0.18867925 45:0.19230769 46:0.19565217 47:0.36956522 48:1 49:1 50:0.96774194 51:0.96666667 52:0.94915254 53:0.93220339 54:0.86885246 55:0.13333333 56:0.16363636 57:0.092592593 58:0.14285714 59:0.17391304 60:0.22857143 61:0.28 62:0.24 63:0.3125 64:0.25 65:0 66:0.33333333 67:0.17948718 68:0.11538462 69:0.098039216 70:0.11538462 71:0.11538462 72:0.19230769 73:0.16363636 74:0.5 75:0.51724138 76:0.50877193 77:0.52542373 78:0.32758621 79:0.26315789 80:0.28070175 81:0.31578947 82:0.42105263 83:0.83018868 84:0.86538462 85:0.97826087 86:1 87:0.36363636 88:0.30952381 89:0.325 90:0.5 91:0.46341463 92:0.43902439 93:0.44186047 94:0.39534884 95:0.37209302 96:0.3 97:0.3 98:0.28947368 99:0.2972973 100:0.39393939 101:0.42857143 102:0.48648649 103:0.55263158 104:0.52631579 105:0.6 106:0.55555556 107:0.41666667 108:0.41666667 109:0.37837838 110:0.36111111 111:0.44117647 112:0.4516129 113:0.48148148 114:0.48275862 115:0.35 116:0.36842105 117:0.30952381 118:0.5106383 119:0.42 120:0.32653061 121:0.34090909 122:0.11904762 123:0.2 124:0.18604651 125:0.15384615 126:0.14705882 127:0 128:0 129:0.37007874 130:0.24342105 131:0.090909091 132:0.44 133:0.5 134:0.60714286 135:0.25925926 136:0.4516129 137:0.38888889 138:0.10526316 139:0.68181818 140:0.55555556 141:0.15625 142:0.33333333 143:0.26666667 144:0.2962963 145:0.076923077 146:0.31818182 147:0.24137931 148:0.020833333 149:0.69230769 150:0.096153846 151:0.66666667 152:0.083333333 153:0.53846154 154:0.13207547 155:0.9 156:0.77272727 157:0.052631579 158:0.4 159:0.066666667 160:0.11111111 161:0.875 162:1 163:0.25925926 164:0.34285714 165:0.36666667 166:0.28888889 167:0.55555556 168:0.44444444 169:0.45 170:0.48214286 171:0.22222222 172:0.35 173:0.33333333 174:0.23255814 175:0.083333333 176:0.85454545 177:0.77358491 178:1 179:0.46808511 180:0.56097561 181:0.22222222 182:0.25 183:0.27777778 184:0.0625 185:0.75 186:0.06122449 187:0.8 188:0.91666667 189:0.35294118 190:0.25714286 191:0 192:0.29545455 193:0 194:0.44 195:0.24137931 196:0.22222222 197:0.27272727 198:0.035714286 199:0 200:0.018181818 201:0.42857143 202:0.18 203:0.54545455 204:0.27586207 205:0.66666667 206:0.28571429 207:0.66666667 208:0.54285714 209:0.55555556 210:0.90909091 211:0.25 212:0.25 213:0.37288136 214:0.073170732 215:0.33333333 216:0.16666667 217:0.44117647 218:0.39130435 219:0.25 220:0.61538462 221:0.13114754 222:0.7 223:0.3 224:0.625 225:0.085106383 226:0.85185185 227:0.10714286 228:1 229:0.15789474 230:0.14583333 231:0.41666667 232:0.35 233:0.37209302 234:0.34375 235:0.17391304 236:0.17241379 237:0.57142857 238:0.38709677 239:0.25 240:0.3125 241:0.47619048 242:0.64150943 243:0.7826087 244:0.4 245:0.3 246:0.18 247:0.55555556 248:0.92857143 249:0.29166667 250:0.37142857 251:0.17391304 252:0.33333333 253:0.14285714 254:0.53846154 255:0.5 256:0.12903226 257:0.22222222 258:0.96296296 259:1 260:0.375 261:0.41176471 262:0.12280702 263:0.35714286 264:0.58333333 265:0.17647059 266:0.38297872 267:0.5 268:0.66666667 269:0.33333333 270:0.48275862 271:0.75 272:0.21428571 273:0.2962963 274:0.98181818 275:0.14264213 276:0.041011007 277:0.52665357 278:0.69149866 279:4.328959e-292 280:0.98337115 281:0.37785462 282:0.40275124 283:0.78807932 284:2.1388775e-291 285:1.5802467e-294 286:0.45223469 287:0.9999998 288:0.18385452 289:0.2461951 290:0.43661442 291:0.60264994 292:0.90029121 293:0.348997 294:0.05656634 295:0.29062064 296:0.79917512 297:0.29652047 298:0.51311346 299:0.19048068 300:0.61055846 301:0.5305297 302:0.40890614 303:0.10805077 304:0.00010612613 305:1.2713915e-291 306:0.80291319 307:0 308:0 309:0.74698795 310:0 311:0.081632653 312:0 313:0.56842105 314:0.39705882 315:0 316:0.11111111 317:0.047619048 318:0.16304348 319:0.34615385 320:0 321:0.091954023 322:0.7962963 323:0.026315789 324:1 325:0 326:0.027777778 327:0.11688312 328:1 329:0.24120603 330:0.57480315 331:0 332:0.48 333:0.28571429 334:0.25903614 335:0.066666667 336:0 337:0.41463415 338:0.65467626 339:0.66 340:0.058823529 341:0 342:0.048611111 343:0.60869565 344:0.63934426 345:0 346:0.4537037 347:0 348:0.28 349:0 350:0.4609375 351:0 352:0 353:0 354:0.63358779 355:1 356:0 357:0 358:0.029411765 359:0 360:0.38461538 361:0 362:0.30578512 363:0.5 364:0.0625 365:0.328 366:0.15909091 367:0 368:0 369:0 370:0.49242424 371:0.090909091 372:0.46153846 373:0.5 374:0.60714286 375:0.25925926 376:0.4516129 377:0.38888889 378:0.10526316 379:0.59259259 380:0.17073171 381:0.1025641 382:0.38095238 383:0.25806452 384:0.41935484 385:0.21875 386:0.14705882 387:0.12956683 388:0.47856702 389:0.7368461 390:0.8363353 391:0.51534888 392:0.54554572 393:0.75313648 394:0.082473463 395:0.85539335 396:0.37725381 397:0.17900877 398:0.75307244 399:0.36925318 400:0.54292114 401:0.59307451 402:0.22972128 
0.8720079206755679 0.8578782462211267 0.8568612129198421 0.8409962420371759 0.9025696064603143 0:0.11344538 1:0.18181818 2:0.1 3:0.4 4:0.1509434 5:0.22641509 6:0.22641509 7:0.32 8:0.33333333 9:0.42 10:0.39215686 11:0.38 12:0.40350877 13:0.43859649 14:0.43859649 15:0.45762712 16:0.42857143 17:0.39285714 18:0.35714286 19:0.375 20:0.39285714 21:0.41509434 22:0.71428571 23:0.68888889 24:0.83673469 25:0.83673469 26:0.75 27:0.7755102 28:0.61702128 29:0.61702128 30:0.42222222 31:0.45238095 32:0.35555556 33:0.32653061 34:0.35416667 35:0.32608696 36:0.44444444 37:0.48780488 38:0.53658537 39:0.48780488 40:0.3902439 41:0.35416667 42:0.2745098 43:0.26 44:0.26415094 45:0.25 46:0.39130435 47:0.39130435 48:1 49:1 50:0.98387097 51:0.98333333 52:1 53:0.94915254 54:0.91803279 55:0.16666667 56:0.2 57:0.11111111 58:0.14285714 59:0.17391304 60:0.22857143 61:0.32 62:0.32 63:0.375 64:0.375 65:0 66:0.33333333 67:0.12820513 68:0.13461538 69:0.11764706 70:0.13461538 71:0.13461538 72:0.23076923 73:0.18181818 74:0.48275862 75:0.48275862 76:0.54385965 77:0.55932203 78:0.55172414 79:0.56140351 80:0.35087719 81:0.33333333 82:0.75438596 83:0.81132075 84:0.84615385 85:0.95652174 86:1 87:0.97727273 88:0.35714286 89:0.4 90:0.5 91:0.46341463 92:0.43902439 93:0.44186047 94:0.41860465 95:0.39534884 96:0.425 97:0.375 98:0.36842105 99:0.35135135 100:0.45454545 101:0.48571429 102:0.48648649 103:0.57894737 104:0.57894737 105:0.62857143 106:0.61111111 107:0.55555556 108:0.52777778 109:0.40540541 110:0.36111111 111:0.5 112:0.5483871 113:0.48148148 114:0.44827586 115:0.375 116:0.39473684 117:0.54761905 118:0.53191489 119:0.42 120:0.40816327 121:0.27272727 122:0.23809524 123:0.24444444 124:0.25581395 125:0.17948718 126:0.26470588 127:0 128:0 129:0.34645669 130:0.23684211 131:0.090909091 132:0.36 133:0.38461538 134:0.57142857 135:0.25925926 136:0.48387097 137:0.44444444 138:0.15789474 139:0.63636364 140:0.51851852 141:0.09375 142:0.2962963 143:0.33333333 144:0.37037037 145:0.076923077 146:0.31818182 147:0.24137931 148:0.020833333 149:0.69230769 150:0.096153846 151:0.75 152:0.83333333 153:0.53846154 154:0.11320755 155:0.55 156:0.40909091 157:0.052631579 158:0.36666667 159:0.066666667 160:0.12962963 161:0.9375 162:1 163:0.22222222 164:0.34285714 165:0.33333333 166:0.28888889 167:0.55555556 168:0.86111111 169:0.4 170:0.48214286 171:0.22222222 172:0.3 173:0.33333333 174:0.20930233 175:0.083333333 176:0.83636364 177:0.75471698 178:1 179:0.4893617 180:0.53658537 181:0.22222222 182:0.66071429 183:0.33333333 184:0.0625 185:0.66666667 186:0.081632653 187:0.8 188:0.91666667 189:0.35294118 190:0.28571429 191:0 192:0.31818182 193:0.048780488 194:0.46 195:0.24137931 196:0.19444444 197:0.18181818 198:0.035714286 199:0 200:0.018181818 201:0.42857143 202:0.18 203:0.54545455 204:0.24137931 205:0.66666667 206:0.28571429 207:0.66666667 208:0.48571429 209:0.55555556 210:0.90909091 211:0.33333333 212:0.33333333 213:0.42372881 214:0.097560976 215:0.41666667 216:0.29166667 217:0.58823529 218:0.60869565 219:0.35 220:0.61538462 221:0.19672131 222:0.53333333 223:0.3 224:0.625 225:0.10638298 226:0.87037037 227:0.14285714 228:0.94117647 229:0.21052632 230:0.1875 231:0.54166667 232:0.45 233:0.48837209 234:0.5 235:0.2173913 236:0.20689655 237:0.64285714 238:0.35483871 239:0.25 240:0.375 241:0.5952381 242:0.62264151 243:0.73913043 244:0.5 245:0.35 246:0.24 247:0.61111111 248:1 249:0.33333333 250:0.51428571 251:0.17391304 252:0.33333333 253:0.14285714 254:0.5 255:0.5 256:0.12903226 257:0.22222222 258:0.98148148 259:0.9 260:0.375 261:0.35294118 262:0.12280702 263:0.42857143 264:0.66666667 265:0.20588235 266:0.44680851 267:0.6 268:0.83333333 269:0.37037037 270:0.44827586 271:0.75 272:0.28571429 273:0.33333333 274:1 275:0.077215432 276:0.023713862 277:0.63519274 278:0.59975602 279:6.4869918e-292 280:0.69632717 281:0.44660483 282:0.39489651 283:0.6127129 284:2.1194452e-291 285:1.8227199e-292 286:0.53438167 287:0.62337378 288:0.35849168 289:0.35836395 290:0.45244393 291:0.43716459 292:0.71332279 293:0.46166908 294:0.168847 295:0.32508991 296:0.70471055 297:0.33636481 298:0.49150335 299:0.078619783 300:0.47069812 301:0.68092634 302:0.33432115 303:0.073878922 304:0.0059455837 305:1.4814167e-291 306:0.78585459 307:0 308:0 309:0.90361446 310:0 311:0.06122449 312:0.014925373 313:0.72631579 314:0.44117647 315:0 316:0 317:0.15238095 318:0.16304348 319:0.19230769 320:0.14285714 321:0.13793103 322:0.7962963 323:0.052631579 324:0.84 325:0.032608696 326:0.10416667 327:0.23376623 328:0.72 329:0.27638191 330:0.62204724 331:0 332:0.28 333:0.42857143 334:0.27710843 335:0.066666667 336:0 337:0.48780488 338:0.6618705 339:0.48 340:0 341:0.0625 342:0.14583333 343:0.67391304 344:0.63934426 345:0.022988506 346:0.58333333 347:0 348:0.38 349:0 350:0.546875 351:0 352:0 353:0 354:0.63358779 355:0.77192982 356:0 357:0.11111111 358:0.080882353 359:0 360:0.84615385 361:0 362:0.30578512 363:0.25 364:0.125 365:0.488 366:0.17045455 367:0 368:0 369:0 370:0.56060606 371:0.090909091 372:0.38461538 373:0.38461538 374:0.57142857 375:0.25925926 376:0.48387097 377:0.44444444 378:0.15789474 379:0.51851852 380:0.2195122 381:0.30769231 382:0.47619048 383:0.29032258 384:0.58064516 385:0.28125 386:0.20588235 387:0.14726081 388:0.39351273 389:0.54876731 390:0.80858328 391:0.54891879 392:0.63035525 393:0.88418896 394:0.14058145 395:0.58681742 396:0.35018652 397:0.48334984 398:0.77054149 399:0.28218426 400:0.5954735 401:0.57061863 402:0.23852468 
0.9892220677442055 0.9738096816354647 0.9721548777755622 0.9541325976956716 1.024180893063057 0:0.092436975 1:0.27272727 2:0.15 3:0.15 4:0.18867925 5:0.18867925 6:0.26415094 7:0.22 8:0.23529412 9:0.34 10:0.35294118 11:0.34 12:0.35087719 13:0.42105263 14:0.38596491 15:0.42372881 16:0.39285714 17:0.375 18:0.28571429 19:0.32142857 20:0.32142857 21:0.47169811 22:0.51020408 23:0.8 24:0.81632653 25:0.81632653 26:0.75 27:0.7755102 28:0.82978723 29:0.5106383 30:0.53333333 31:0.26190476 32:0.2 33:0.18367347 34:0.14583333 35:0.30434783 36:0.28888889 37:0.31707317 38:0.41463415 39:0.36585366 40:0.36585366 41:0.33333333 42:0.33333333 43:0.12 44:0.16981132 45:0.15384615 46:0.19565217 47:0.19565217 48:0.98305085 49:0.98360656 50:0.96774194 51:0.96666667 52:0.98305085 53:1 54:0.96721311 55:0.9 56:1 57:0.12962963 58:0.16071429 59:0.19565217 60:0.25714286 61:0.36 62:0.32 63:0.3125 64:0.3125 65:0 66:0 67:0.17948718 68:0.057692308 69:0.078431373 70:0.096153846 71:0.096153846 72:0.17307692 73:0.12727273 74:0.10344828 75:0.51724138 76:0.50877193 77:0.57627119 78:0.62068966 79:0.63157895 80:0.33333333 81:0.33333333 82:0.33333333 83:0.37735849 84:0.84615385 85:0.93478261 86:0.97826087 87:0.95454545 88:1 89:0.45 90:0.45 91:0.3902439 92:0.46341463 93:0.46511628 94:0.34883721 95:0.3255814 96:0.325 97:0.35 98:0.34210526 99:0.32432432 100:0.48484848 101:0.48571429 102:0.56756757 103:0.60526316 104:0.60526316 105:0.62857143 106:0.61111111 107:0.61111111 108:0.44444444 109:0.40540541 110:0.41666667 111:0.52941176 112:0.58064516 113:0.62962963 114:0.62068966 115:0.45 116:0.44736842 117:0.42857143 118:0.40425532 119:0.48 120:0.46938776 121:0.52272727 122:0.19047619 123:0.33333333 124:0.34883721 125:0.17948718 126:0.26470588 127:0 128:0 129:0.2992126 130:0.23026316 131:0 132:0.32 133:0.30769231 134:0.57142857 135:0.25925926 136:0.41935484 137:0.44444444 138:0.15789474 139:0.63636364 140:0.59259259 141:0.15625 142:0.33333333 143:0.3 144:0.25925926 145:0 146:0.31818182 147:0.27586207 148:0.0625 149:0.76923077 150:0.13461538 151:0.83333333 152:0.66666667 153:0.53846154 154:0.13207547 155:0.6 156:0.5 157:0.10526316 158:0.86666667 159:0.13333333 160:1 161:0.9375 162:1 163:0.25925926 164:0.4 165:0.33333333 166:0.28888889 167:0.55555556 168:0.41666667 169:0.35 170:0.51785714 171:0.14814815 172:0.325 173:0.33333333 174:0.18604651 175:0.083333333 176:1 177:0.73584906 178:1 179:0.4893617 180:0.58536585 181:0.33333333 182:0.69642857 183:0.27777778 184:0.083333333 185:0.66666667 186:0.10204082 187:0.93333333 188:0.95833333 189:0.47058824 190:0.25714286 191:0 192:0.29545455 193:0 194:0.22 195:0.24137931 196:0.22222222 197:0.27272727 198:0.39285714 199:0 200:0.43636364 201:0.28571429 202:0.22 203:0.36363636 204:0.27586207 205:0.53333333 206:0.25 207:0.53333333 208:0.51428571 209:0.44444444 210:0.36363636 211:0.25 212:0.25 213:0.42372881 214:0.097560976 215:0.33333333 216:0.20833333 217:0.55882353 218:0.47826087 219:0.3 220:0.69230769 221:0.2295082 222:0.73333333 223:0.3 224:1 225:0.12765957 226:0.98148148 227:0.10714286 228:0.76470588 229:0.15789474 230:0.10416667 231:0.41666667 232:0.35 233:0.41860465 234:0.4375 235:0.2173913 236:0.17241379 237:0.69047619 238:0.35483871 239:0.4 240:0.5625 241:0.52380952 242:0.71698113 243:0.56521739 244:0.5 245:0.35 246:0.2 247:0.5 248:0.85714286 249:0.33333333 250:0.45714286 251:0.17391304 252:0.27777778 253:0.14285714 254:0.5 255:0.7 256:0.19354839 257:0.33333333 258:0.98148148 259:0.75 260:0.5 261:0.47058824 262:0.12280702 263:0.42857143 264:0.66666667 265:0.20588235 266:0.53191489 267:0.6 268:0.66666667 269:0.40740741 270:0.48275862 271:0.75 272:0.35714286 273:0.37037037 274:1 275:0.021635756 276:0.013212556 277:0.52651828 278:0.77475361 279:2.7712265e-292 280:0.69029418 281:0.42724835 282:0.44844473 283:0.37512523 284:1.4072179e-291 285:5.7570224e-292 286:0.71273932 287:0.64902168 288:0.22818236 289:0.2562853 290:0.55040898 291:0.42485113 292:0.69404333 293:0.611621 294:0.084663888 295:0.18321108 296:0.67206637 297:0.32208499 298:0.58685797 299:0.049203714 300:0.064547468 301:0.64176617 302:0.50193269 303:0.036627288 304:0.049129653 305:8.0002259e-292 306:0.86525912 307:0 308:0 309:0.77108434 310:0 311:0.020408163 312:0 313:0.63157895 314:0.33823529 315:0 316:0 317:0.047619048 318:0.15217391 319:0.038461538 320:0.14285714 321:0.034482759 322:1 323:0.026315789 324:0.66666667 325:0.11956522 326:0.041666667 327:0.051948052 328:0.8 329:0.28140704 330:0.5984252 331:0 332:0.12 333:0.36190476 334:0.21084337 335:0.066666667 336:0.40909091 337:0.35772358 338:0.88489209 339:0.26 340:0.29411765 341:0.3125 342:0.048611111 343:0.5 344:0.55737705 345:0.011494253 346:0.74074074 347:0 348:0 349:0 350:0.6171875 351:0 352:0 353:0 354:0.8778626 355:0.96491228 356:0 357:0.26666667 358:0.058823529 359:0 360:0.69230769 361:0 362:0.39669421 363:0.125 364:0 365:0.336 366:0.15909091 367:0 368:0 369:0 370:0.77272727 371:0 372:0.34615385 373:0.30769231 374:0.57142857 375:0.25925926 376:0.41935484 377:0.44444444 378:0.15789474 379:0.44444444 380:0.29268293 381:0.25641026 382:0.54761905 383:0.29032258 384:0.41935484 385:0.3125 386:0.32352941 387:0.068112208 388:0.37630971 389:0.45211584 390:0.8637496 391:0.62028417 392:0.57396361 393:0.97495491 394:0.1577186 395:0.4687762 396:0.48948392 397:0.36039784 398:0.87310357 399:0.27053892 400:0.41672871 401:0.61084275 402:0.42960006 
0.9419036114057999 0.9270597028577358 0.9258741134523366 0.9084508969236611 0.9746769368694206 0:0.0042016807 1:0.36363636 2:0.2 3:0.2 4:0.094339623 5:0.16981132 6:0.22641509 7:0.18 8:0.19607843 9:0.26 10:0.29411765 11:0.32 12:0.36842105 13:0.36842105 14:0.36842105 15:0.37288136 16:0.33928571 17:0.33928571 18:0.30357143 19:0.33928571 20:0.35714286 21:0.43396226 22:0.67346939 23:0.66666667 24:0.73469388 25:0.7755102 26:0.6875 27:0.69387755 28:0.70212766 29:0.61702128 30:0.24444444 31:0.19047619 32:0.17777778 33:0.14285714 34:0.33333333 35:0.32608696 36:0.33333333 37:0.36585366 38:0.3902439 39:0.36585366 40:0.36585366 41:0.3125 42:0.11764706 43:0.14 44:0.18867925 45:0.17307692 46:0.39130435 47:0.52173913 48:0.96610169 49:0.96721311 50:0.93548387 51:0.91666667 52:0.93220339 53:0.94915254 54:0.90163934 55:0.18333333 56:0.14545455 57:0.092592593 58:0.14285714 59:0.17391304 60:0.22857143 61:0.32 62:0.28 63:0.1875 64:0.0625 65:0 66:0 67:0.20512821 68:0.11538462 69:0.11764706 70:0.11538462 71:0.13461538 72:0.19230769 73:0.14545455 74:0.15517241 75:0.5 76:0.50877193 77:0.52542373 78:0.53448276 79:0.36842105 80:0.35087719 81:0.33333333 82:0.36842105 83:0.75471698 84:0.80769231 85:0.91304348 86:0.89130435 87:0.54545455 88:0.35714286 89:0.35 90:0.375 91:0.3902439 92:0.34146341 93:0.39534884 94:0.34883721 95:0.30232558 96:0.3 97:0.3 98:0.31578947 99:0.32432432 100:0.42424242 101:0.48571429 102:0.48648649 103:0.57894737 104:0.57894737 105:0.65714286 106:0.61111111 107:0.58333333 108:0.44444444 109:0.40540541 110:0.36111111 111:0.44117647 112:0.4516129 113:0.48148148 114:0.48275862 115:0.35 116:0.55263158 117:0.5 118:0.4893617 119:0.38 120:0.16326531 121:0.15909091 122:0.095238095 123:0.2 124:0.069767442 125:0.025641026 126:0 127:0 128:0 129:0.29133858 130:0.20394737 131:0.090909091 132:0.4 133:0.38461538 134:0.53571429 135:0.25925926 136:0.41935484 137:0.33333333 138:0 139:0.5 140:0.59259259 141:0.125 142:0.25925926 143:0.26666667 144:0.2962963 145:0.076923077 146:0.31818182 147:0.27586207 148:0.083333333 149:0.76923077 150:0.11538462 151:0.83333333 152:0.83333333 153:0.46153846 154:0.11320755 155:0.55 156:0.45454545 157:0.10526316 158:0.36666667 159:0.13333333 160:0.055555556 161:0.875 162:1 163:0.33333333 164:0.4 165:0.4 166:0.31111111 167:0.77777778 168:0.41666667 169:0.45 170:0.53571429 171:0.2962963 172:0.325 173:0.5 174:0.20930233 175:0.125 176:0.89090909 177:0.77358491 178:1 179:0.4893617 180:0.53658537 181:0.44444444 182:0.19642857 183:0.38888889 184:0.083333333 185:0.75 186:0.10204082 187:0.8 188:0.91666667 189:0.29411765 190:0.25714286 191:0 192:0.31818182 193:0.97560976 194:1 195:0.24137931 196:0.19444444 197:0.18181818 198:0 199:0 200:0.34545455 201:0.42857143 202:0.18 203:0.54545455 204:0.31034483 205:0.66666667 206:0.28571429 207:0.66666667 208:0.54285714 209:0.55555556 210:1 211:0.16666667 212:0.25 213:0.38983051 214:0.073170732 215:0.33333333 216:0.25 217:0.44117647 218:0.52173913 219:0.3 220:0.92307692 221:0.16393443 222:0.5 223:0.3 224:0.875 225:0.12765957 226:0.83333333 227:0.10714286 228:0.88235294 229:0.18421053 230:0.10416667 231:0.5 232:0.4 233:0.39534884 234:0.46875 235:0.2173913 236:0.17241379 237:0.54761905 238:0.38709677 239:0.3 240:0.5 241:0.45238095 242:0.64150943 243:0.7826087 244:0.4 245:0.4 246:0.16 247:0.61111111 248:0.92857143 249:0.375 250:0.45714286 251:0.17391304 252:0.27777778 253:0.14285714 254:0.53846154 255:0.6 256:0.12903226 257:0.22222222 258:0.94444444 259:0.95 260:0.375 261:0.47058824 262:0.10526316 263:0.28571429 264:0.75 265:0.11764706 266:0.42553191 267:0.7 268:0.83333333 269:0.33333333 270:0.48275862 271:0.625 272:0.28571429 273:0.33333333 274:0.96363636 275:0.088286502 276:0.28459984 277:0.41052593 278:0.75477289 279:3.943553e-292 280:0.75787291 281:0.39325766 282:0.45417312 283:0.80608234 284:9.4298609e-292 285:4.8993667e-292 286:0.5292027 287:0.80638869 288:0.16625849 289:0.35226133 290:0.42417162 291:0.63228986 292:0.81262883 293:0.39492014 294:0.031464425 295:0.36856807 296:0.52326774 297:0.27608358 298:0.57692873 299:0.079375427 300:0.31083972 301:0.55820576 302:0.51150472 303:0.054847855 304:0.082238158 305:1.1364321e-291 306:0.80289828 307:0.027027027 308:0 309:0.54216867 310:0 311:0.040816327 312:0.044776119 313:0.49473684 314:0.55882353 315:0 316:0.44444444 317:0.047619048 318:0.16304348 319:0.19230769 320:0.85714286 321:0.091954023 322:0.77777778 323:0 324:0.74666667 325:0.02173913 326:0.013888889 327:0.14285714 328:0.6 329:0.23115578 330:0.62204724 331:0 332:0.16 333:0.30952381 334:0.28915663 335:0.026666667 336:0.31818182 337:0.35772358 338:0.65467626 339:0.61 340:0.11764706 341:0.14583333 342:0.013888889 343:0.86956522 344:0.37704918 345:0.068965517 346:0.60185185 347:0 348:0 349:0 350:0.6015625 351:0 352:0 353:0 354:0.63358779 355:0.84210526 356:0 357:0.11111111 358:0.022058824 359:0 360:0.38461538 361:0 362:0.21487603 363:0.21875 364:0 365:0.376 366:0.19318182 367:0 368:0 369:0 370:0.46969697 371:0.090909091 372:0.42307692 373:0.38461538 374:0.53571429 375:0.25925926 376:0.41935484 377:0.33333333 378:0 379:0.25925926 380:0.24390244 381:0.1025641 382:0.30952381 383:0.22580645 384:0.4516129 385:0.125 386:0.058823529 387:0.19145423 388:0.49229734 389:0.61331386 390:0.81591343 391:0.63276474 392:0.58396443 393:0.80167042 394:2.035705e-006 395:0.41882196 396:0.66051084 397:0.28631938 398:0.72649822 399:0.42062514 400:0.67705649 401:0.5108234 402:0.1252882 
0.7632064205271343 0.7511249595131816 0.7498670829882494 0.7360157167267 0.7898504393889122 0:0.067226891 1:0.18181818 2:0.15 3:0.3 4:0.13207547 5:0.11320755 6:0.1509434 7:0.08 8:0.1372549 9:0.16 10:0.1372549 11:0.14 12:0.19298246 13:0.22807018 14:0.21052632 15:0.22033898 16:0.19642857 17:0.16071429 18:0.125 19:0.19642857 20:0.23214286 21:0.32075472 22:0.42857143 23:0.46666667 24:0.59183673 25:0.53061224 26:0.5 27:0.3877551 28:0.27659574 29:0.10638298 30:0.11111111 31:0.047619048 32:0.044444444 33:0.06122449 34:0.083333333 35:0.086956522 36:0.15555556 37:0.24390244 38:0.26829268 39:0.19512195 40:0.14634146 41:0.0625 42:0 43:0.02 44:0.094339623 45:0.076923077 46:0.086956522 47:0.10869565 48:0.11864407 49:0.27868852 50:0.96774194 51:0.96666667 52:0.94915254 53:0.93220339 54:0.06557377 55:0.033333333 56:0.018181818 57:0.018518519 58:0.053571429 59:0.086956522 60:0.14285714 61:0.2 62:0.16 63:0.1875 64:0.125 65:0 66:0.2 67:0.12820513 68:0.057692308 69:0.039215686 70:0.038461538 71:0.019230769 72:0.076923077 73:0.054545455 74:0.068965517 75:0.44827586 76:0.43859649 77:0.16949153 78:0.086206897 79:0.087719298 80:0.12280702 81:0.15789474 82:0.22807018 83:0.73584906 84:0.75 85:0.19565217 86:0.15217391 87:0.11363636 88:0.11904762 89:0.075 90:0.125 91:0.19512195 92:0.17073171 93:0.1627907 94:0.18604651 95:0.11627907 96:0.1 97:0.125 98:0.052631579 99:0.081081081 100:0.18181818 101:0.22857143 102:0.27027027 103:0.28947368 104:0.23684211 105:0.28571429 106:0.22222222 107:0.13888889 108:0.19444444 109:0.10810811 110:0.083333333 111:0.17647059 112:0.16129032 113:0.14814815 114:0.17241379 115:0.125 116:0.13157895 117:0.071428571 118:0.042553191 119:0.06 120:0.24489796 121:0.25 122:0.095238095 123:0.17777778 124:0.1627907 125:0.1025641 126:0.088235294 127:0 128:0 129:0.44094488 130:0.26315789 131:0.090909091 132:0.4 133:0.69230769 134:0.67857143 135:0.33333333 136:0.48387097 137:0.38888889 138:0.10526316 139:0.68181818 140:0.59259259 141:0.25 142:0.2962963 143:0.23333333 144:0.25925926 145:0.15384615 146:0.31818182 147:0.27586207 148:0.020833333 149:0.76923077 150:0.13461538 151:0.75 152:0.16666667 153:0.53846154 154:0.13207547 155:0.9 156:0.81818182 157:0.94736842 158:0.96666667 159:0.066666667 160:0.14814815 161:0.9375 162:1 163:0.25925926 164:0.37142857 165:0.43333333 166:0.26666667 167:0.72222222 168:0.41666667 169:0.45 170:0.57142857 171:0.25925926 172:0.35 173:0.33333333 174:0.27906977 175:0.083333333 176:0.63636364 177:0.81132075 178:1 179:0.4893617 180:0.6097561 181:0.22222222 182:0.26785714 183:0.27777778 184:0.083333333 185:0.83333333 186:0.06122449 187:0.86666667 188:0.33333333 189:0.41176471 190:0.25714286 191:0 192:0.31818182 193:0 194:0.46 195:0.27586207 196:0.25 197:0.27272727 198:0.053571429 199:0 200:0.036363636 201:0.5 202:0.22 203:0.63636364 204:0.31034483 205:0.73333333 206:0.32142857 207:0.73333333 208:0.57142857 209:0.61111111 210:0.95454545 211:0.083333333 212:0.083333333 213:0.3559322 214:0.024390244 215:0.16666667 216:0.041666667 217:0.29411765 218:0.13043478 219:0 220:0 221:0 222:0 223:0.1 224:0.25 225:0.021276596 226:0.83333333 227:0.035714286 228:0.64705882 229:0.052631579 230:0.041666667 231:0.20833333 232:0.1 233:0.11627907 234:0.09375 235:0.043478261 236:0.068965517 237:0.47619048 238:0.064516129 239:0.05 240:0.125 241:0.26190476 242:0.64150943 243:0.52173913 244:0.2 245:0.05 246:0.08 247:0.22222222 248:0.64285714 249:0.125 250:0.085714286 251:0.086956522 252:0.16666667 253:0.071428571 254:0.11538462 255:0.2 256:0.032258065 257:0.055555556 258:0.96296296 259:0.75 260:0.125 261:0.17647059 262:0.052631579 263:0.21428571 264:0.33333333 265:0.11764706 266:0.23404255 267:0.3 268:0.33333333 269:0.25925926 270:0.10344828 271:0.375 272:0.071428571 273:0.14814815 274:0.85454545 275:0.15038219 276:0.0017144569 277:0.44598048 278:0.81191972 279:2.4946015e-292 280:1 281:0.29396667 282:0.50117955 283:0.72820162 284:2.8625723e-291 285:1.9288845e-294 286:0.40027693 287:0.75473493 288:0.25172998 289:0.39392644 290:0.39671812 291:0.61237422 292:0.99999976 293:0.34879656 294:0.020413529 295:0.20230284 296:0.91341376 297:0.10963886 298:0.68045113 299:0.17464019 300:0.81181669 301:0.67959738 302:0.20564228 303:0.078480333 304:0.0093129897 305:1.3138975e-291 306:0.80515504 307:0 308:0 309:0.37349398 310:0 311:0.10204082 312:0 313:0.29473684 314:0.27941176 315:0 316:0 317:0 318:0 319:0.11538462 320:0 321:0.068965517 322:0.58333333 323:0 324:0.6 325:0 326:0.0069444444 327:0.025974026 328:0.32 329:0.045226131 330:0.59055118 331:0 332:0.48 333:0.15238095 334:0.042168675 335:0.04 336:0.045454545 337:0.25203252 338:0.42446043 339:0.44 340:0.11764706 341:0 342:0 343:0.23913043 344:0.62295082 345:0 346:0.18518519 347:0 348:0.12 349:0 350:0.21875 351:0 352:0 353:0 354:0.38931298 355:0.45614035 356:0 357:0.066666667 358:0.014705882 359:0 360:0.30769231 361:0 362:0.16528926 363:0.21875 364:0.0625 365:0.208 366:0 367:0.05 368:0 369:0.048543689 370:0.33333333 371:0.090909091 372:0.42307692 373:0.69230769 374:0.67857143 375:0.33333333 376:0.48387097 377:0.38888889 378:0.10526316 379:0.55555556 380:0.24390244 381:0.20512821 382:0.35714286 383:0.32258065 384:0.4516129 385:0.03125 386:0.26470588 387:0.080441303 388:0.37563223 389:0.98974316 390:0.86268596 391:0.55332064 392:0.52030498 393:0.63953508 394:0.062889947 395:0.75093737 396:0.50254415 397:0.37449908 398:0.6714961 399:0.43657932 400:0.54509384 401:0.22285135 402:0.41842185 
0.894029727856823 0.8801461690070433 0.8785053657643892 0.8622860521183136 0.9253639330002782 0:0.17226891 1:0.090909091 2:0.05 3:0.15 4:0.094339623 5:0.11320755 6:0.13207547 7:0.1 8:0.19607843 9:0.18 10:0.17647059 11:0.16 12:0.21052632 13:0.22807018 14:0.22807018 15:0.22033898 16:0.19642857 17:0.23214286 18:0.19642857 19:0.23214286 20:0.25 21:0.33962264 22:0.57142857 23:0.48888889 24:0.6122449 25:0.59183673 26:0.54166667 27:0.53061224 28:0.55319149 29:0.27659574 30:0.11111111 31:0.11904762 32:0.11111111 33:0.081632653 34:0.10416667 35:0.19565217 36:0.17777778 37:0.26829268 38:0.31707317 39:0.2195122 40:0.2195122 41:0.16666667 42:0.078431373 43:0.04 44:0.13207547 45:0.11538462 46:0.13043478 47:0.10869565 48:0.20338983 49:0.2295082 50:0.9516129 51:0.95 52:0.93220339 53:0.94915254 54:0.1147541 55:0.05 56:0.036363636 57:0.018518519 58:0.071428571 59:0.086956522 60:0.17142857 61:0.24 62:0.24 63:0.25 64:0.0625 65:0 66:0 67:0.1025641 68:0.057692308 69:0.039215686 70:0.076923077 71:0.076923077 72:0.076923077 73:0.018181818 74:0.017241379 75:0.39655172 76:0.45614035 77:0.47457627 78:0.48275862 79:0.10526316 80:0.10526316 81:0.1754386 82:0.1754386 83:0.28301887 84:0.78846154 85:0.86956522 86:0.86956522 87:0.090909091 88:0.095238095 89:0.125 90:0.125 91:0.17073171 92:0.19512195 93:0.23255814 94:0.18604651 95:0.11627907 96:0.1 97:0.125 98:0.10526316 99:0.081081081 100:0.15151515 101:0.25714286 102:0.27027027 103:0.28947368 104:0.28947368 105:0.28571429 106:0.22222222 107:0.22222222 108:0.22222222 109:0.16216216 110:0.16666667 111:0.23529412 112:0.19354839 113:0.22222222 114:0.20689655 115:0.175 116:0.13157895 117:0.071428571 118:0.063829787 119:0.18 120:0.16326531 121:0.25 122:0.071428571 123:0.17777778 124:0.18604651 125:0.1025641 126:0.088235294 127:0 128:0 129:0.4015748 130:0.26973684 131:0 132:0.32 133:0.61538462 134:0.64285714 135:0.2962963 136:0.51612903 137:0.44444444 138:0.10526316 139:0.59090909 140:0.59259259 141:0.25 142:0.33333333 143:0.23333333 144:0.33333333 145:0.15384615 146:0.31818182 147:0.27586207 148:0.041666667 149:0.76923077 150:0.13461538 151:0.83333333 152:0.25 153:0.53846154 154:0.1509434 155:0.95 156:0.81818182 157:0.10526316 158:0.43333333 159:0.13333333 160:0.16666667 161:1 162:1 163:0.25925926 164:0.37142857 165:0.4 166:0.31111111 167:0.72222222 168:0.41666667 169:0.5 170:0.5 171:0.25925926 172:0.325 173:0.33333333 174:0.25581395 175:0.083333333 176:0.6 177:0.77358491 178:1 179:0.5106383 180:0.63414634 181:0.33333333 182:0.73214286 183:0.33333333 184:0.083333333 185:0.91666667 186:0.081632653 187:1 188:0.375 189:0.47058824 190:0.25714286 191:0.11111111 192:0.31818182 193:0 194:0.48 195:0.27586207 196:0.22222222 197:1 198:0.42857143 199:0 200:0.036363636 201:0.5 202:0.2 203:0.63636364 204:0.27586207 205:0.73333333 206:0.32142857 207:0.73333333 208:0.057142857 209:0.61111111 210:0.93181818 211:0.16666667 212:0.16666667 213:0.38983051 214:0.048780488 215:0.25 216:0.083333333 217:0.5 218:0.13043478 219:0.1 220:0.38461538 221:0.098360656 222:0.083333333 223:0.1 224:0.25 225:0.042553191 226:0.83333333 227:0.035714286 228:0.52941176 229:0.052631579 230:0.041666667 231:0.29166667 232:0.2 233:0.18604651 234:0.125 235:0.086956522 236:0.068965517 237:0.54761905 238:0.096774194 239:0.05 240:0.125 241:0.33333333 242:0.56603774 243:0.43478261 244:0.1 245:0.05 246:0.06 247:0.22222222 248:0.57142857 249:0.16666667 250:0.11428571 251:0.086956522 252:0.22222222 253:0.10714286 254:0.11538462 255:0.2 256:0.032258065 257:0.055555556 258:0.96296296 259:0.55 260:0.25 261:0.17647059 262:0.052631579 263:0.28571429 264:0.41666667 265:0.14705882 266:0.25531915 267:0.2 268:0.5 269:0.18518519 270:0.10344828 271:0.25 272:0.071428571 273:0.11111111 274:0.87272727 275:0.047157047 276:0.038029824 277:0.7571608 278:0.45987867 279:3.9019317e-292 280:0.71460475 281:0.38266658 282:0.47867693 283:0.47394088 284:2.9339128e-291 285:1.1692891e-292 286:0.52536467 287:0.48900128 288:0.47871531 289:0.42096212 290:0.43286938 291:0.44427084 292:0.74243817 293:0.57643901 294:0.080454767 295:0.1380783 296:0.85573762 297:0.28828816 298:0.58173963 299:0.020801114 300:0.72518722 301:0.76585676 302:0.20459386 303:0.077234106 304:0.026664995 305:1.598998e-291 306:0.76221182 307:0 308:0 309:0.59036145 310:0 311:0.040816327 312:0 313:0.63157895 314:0.11764706 315:0 316:0.037037037 317:0.038095238 318:0 319:0.038461538 320:0.14285714 321:0.11494253 322:0.5 323:0 324:0.46666667 325:0.043478261 326:0.0069444444 327:0.038961039 328:0.44 329:0.085427136 330:0.64566929 331:0 332:0.32 333:0.22857143 334:0.084337349 335:0.08 336:0 337:0.30894309 338:0.43884892 339:0.28 340:0 341:0.041666667 342:0.034722222 343:0.2173913 344:0.68852459 345:0 346:0.33333333 347:0 348:0.16 349:0 350:0.265625 351:0 352:0 353:0 354:0.38931298 355:0.40350877 356:0 357:0.044444444 358:0.044117647 359:0 360:0.30769231 361:0 362:0.19834711 363:0.03125 364:0.25 365:0.264 366:0 367:0 368:0.055555556 369:0.038834951 370:0.33333333 371:0 372:0.34615385 373:0.61538462 374:0.64285714 375:0.2962963 376:0.51612903 377:0.44444444 378:0.10526316 379:0.40740741 380:0.31707317 381:0.17948718 382:0.42857143 383:0.35483871 384:0.4516129 385:0.09375 386:0.35294118 387:0 388:0.30359341 389:0.90688641 390:0.85423596 391:0.54028721 392:0.61834224 393:0.78711981 394:0.073490711 395:0.47911273 396:0.61414638 397:0.26775776 398:0.74918259 399:0.44124996 400:0.50646129 401:0.30015094 402:0.53906391 
0.8855138312600572 0.8713709083196295 0.870221513308302 0.854237411180287 0.9168749660834407 0:0.23109244 1:0.18181818 2:0.1 3:0.15 4:0.11320755 5:0.094339623 6:0.13207547 7:0.16 8:0.19607843 9:0.2 10:0.17647059 11:0.16 12:0.24561404 13:0.24561404 14:0.22807018 15:0.23728814 16:0.23214286 17:0.23214286 18:0.19642857 19:0.23214286 20:0.41071429 21:0.41509434 22:0.63265306 23:0.55555556 24:0.57142857 25:0.57142857 26:0.5625 27:0.34693878 28:0.36170213 29:0.12765957 30:0.11111111 31:0.023809524 32:0.022222222 33:0.16326531 34:0.14583333 35:0.23913043 36:0.22222222 37:0.2195122 38:0.24390244 39:0.097560976 40:0.073170732 41:0.0625 42:0.019607843 43:0.02 44:0.11320755 45:0.096153846 46:0.13043478 47:0.13043478 48:0.96610169 49:0.96721311 50:0.9516129 51:0.95 52:0.86440678 53:0.88135593 54:0.049180328 55:0.033333333 56:0.054545455 57:0.037037037 58:0.089285714 59:0.13043478 60:0.17142857 61:0.16 62:0.16 63:0.125 64:0.125 65:0 66:0.26666667 67:0.1025641 68:0.076923077 69:0.058823529 70:0.038461538 71:0.038461538 72:0.11538462 73:0.10909091 74:0.44827586 75:0.48275862 76:0.45614035 77:0.20338983 78:0.20689655 79:0.19298246 80:0.21052632 81:0.28070175 82:0.28070175 83:0.75471698 84:0.75 85:0.2826087 86:0.2826087 87:0.20454545 88:0.21428571 89:0.175 90:0.15 91:0.26829268 92:0.24390244 93:0.23255814 94:0.18604651 95:0.18604651 96:0.15 97:0.2 98:0.18421053 99:0.18918919 100:0.27272727 101:0.28571429 102:0.35135135 103:0.39473684 104:0.39473684 105:0.42857143 106:0.25 107:0.25 108:0.25 109:0.21621622 110:0.19444444 111:0.29411765 112:0.32258065 113:0.37037037 114:0.24137931 115:0.2 116:0.052631579 117:0.071428571 118:0.063829787 119:0.26 120:0.2244898 121:0.068181818 122:0.023809524 123:0.13333333 124:0.13953488 125:0 126:0.058823529 127:0 128:0 129:0.38582677 130:0.21052632 131:0.090909091 132:0.48 133:0.61538462 134:0.57142857 135:0.2962963 136:0.4516129 137:0.33333333 138:0.052631579 139:0.63636364 140:0.55555556 141:0.1875 142:0.22222222 143:0.26666667 144:0.22222222 145:0.076923077 146:0.31818182 147:0.24137931 148:0.041666667 149:0.69230769 150:0.11538462 151:0.66666667 152:0.58333333 153:0.53846154 154:0.13207547 155:0.9 156:0.81818182 157:0.052631579 158:0.9 159:0.066666667 160:0.14814815 161:0.875 162:1 163:0.2962963 164:0.37142857 165:0.43333333 166:0.31111111 167:0.61111111 168:0.5 169:0.5 170:0.57142857 171:0.2962963 172:0.375 173:0.33333333 174:0.30232558 175:0.16666667 176:0.90909091 177:0.81132075 178:1 179:0.46808511 180:0.58536585 181:0.22222222 182:0.23214286 183:0.33333333 184:0.0625 185:0.91666667 186:0.081632653 187:0.73333333 188:0.33333333 189:0.35294118 190:0.22857143 191:0 192:0.27272727 193:1 194:1 195:0.27586207 196:0.25 197:0.36363636 198:0.053571429 199:0 200:0.036363636 201:0.5 202:0.24 203:0.63636364 204:0.31034483 205:0.73333333 206:0.39285714 207:0.73333333 208:0.57142857 209:0.72222222 210:1 211:0.16666667 212:0.16666667 213:0.3559322 214:0.048780488 215:0.25 216:0.125 217:0.35294118 218:0.26086957 219:0.2 220:0.46153846 221:0.098360656 222:0.98333333 223:0.2 224:0.375 225:0.042553191 226:0.87037037 227:0.071428571 228:0.58823529 229:0.10526316 230:0.083333333 231:0.29166667 232:0.2 233:0.13953488 234:0.21875 235:0.086956522 236:0.10344828 237:0.38095238 238:0.48387097 239:0.1 240:0.1875 241:0.26190476 242:0.66037736 243:0.43478261 244:0.2 245:0.1 246:0.1 247:0.27777778 248:0.64285714 249:0.16666667 250:0.17142857 251:0.13043478 252:0.22222222 253:0.10714286 254:0.5 255:0.4 256:0.096774194 257:0.16666667 258:0.92592593 259:0.4 260:0.25 261:0.17647059 262:0.052631579 263:0.28571429 264:0.33333333 265:0.11764706 266:0.27659574 267:0.4 268:0.33333333 269:0.22222222 270:0.48275862 271:0.5 272:0.14285714 273:0.18518519 274:0.96363636 275:0.19898942 276:0.01762178 277:0.41814621 278:0.80876183 279:8.6419885e-293 280:0.79418527 281:0.27290267 282:0.59421449 283:0.47220334 284:1.976304e-291 285:3.0295067e-292 286:0.62105298 287:0.66229715 288:0.30583784 289:0.19382592 290:0.58819848 291:0.37946663 292:0.8050374 293:0.47110339 294:0.18072958 295:0.16405182 296:0.56844799 297:0.14464001 298:0.77889989 299:0.31197294 300:0.86390758 301:0.36423917 302:0.46709361 303:0.079618805 304:0.0080930087 305:1.0009952e-291 306:0.844128 307:0.027027027 308:0 309:0.46987952 310:0.023255814 311:0.14285714 312:0 313:0.43157895 314:0.33823529 315:0 316:0 317:0 318:0.16304348 319:0.23076923 320:0.14285714 321:0.022988506 322:0.65740741 323:0 324:0.52 325:0.065217391 326:0.041666667 327:0 328:0.44 329:0.040201005 330:0.66141732 331:0 332:0.44 333:0.14285714 334:0.1626506 335:0.026666667 336:0 337:0.27642276 338:0.53956835 339:0.33 340:0 341:0.10416667 342:0.090277778 343:0.2173913 344:0.36065574 345:0 346:0.49074074 347:0.023255814 348:0.34 349:0.0096153846 350:0.2890625 351:0 352:0 353:0 354:0.51145038 355:0.22807018 356:0.083333333 357:0 358:0.058823529 359:0 360:0.23076923 361:0 362:0.17355372 363:0.53125 364:0.0625 365:0.12 366:0.13636364 367:0 368:0 369:0 370:0.34848485 371:0.090909091 372:0.5 373:0.61538462 374:0.57142857 375:0.2962963 376:0.4516129 377:0.33333333 378:0.052631579 379:0.51851852 380:0.26829268 381:0.30769231 382:0.52380952 383:0.29032258 384:0.38709677 385:0.125 386:0.20588235 387:0.11815383 388:0.5165483 389:0.92854215 390:0.76589506 391:0.5622644 392:0.52747172 393:0.63953508 394:0.028526952 395:0.63182416 396:0.49576071 397:0.53613519 398:0.89575609 399:0.32452414 400:0.42613088 401:0.34426709 402:0.26886124 
0.9402386293350397 0.9249714359446942 0.9240405275082172 0.9069182202238078 0.9733490083984618 0:0.021008403 1:0.27272727 2:0.2 3:0.4 4:0.18867925 5:0.18867925 6:0.18867925 7:0.2 8:0.17647059 9:0.2 10:0.17647059 11:0.16 12:0.26315789 13:0.26315789 14:0.26315789 15:0.28813559 16:0.19642857 17:0.17857143 18:0.21428571 19:0.26785714 20:0.30357143 21:0.58490566 22:0.57142857 23:0.6 24:0.55102041 25:0.53061224 26:0.5 27:0.36734694 28:0.29787234 29:0.19148936 30:0.044444444 31:0.023809524 32:0.022222222 33:0.16326531 34:0.1875 35:0.2826087 36:0.26666667 37:0.29268293 38:0.29268293 39:0.2195122 40:0.19512195 41:0.16666667 42:0.058823529 43:0.08 44:0.1509434 45:0.15384615 46:0.15217391 47:0.26086957 48:0.28813559 49:0.3442623 50:1 51:0.96666667 52:0.96610169 53:0.96610169 54:0.081967213 55:0.05 56:0.036363636 57:0.037037037 58:0.089285714 59:0.13043478 60:0.2 61:0.24 62:0.16 63:0.1875 64:0.125 65:0.2 66:0.6 67:0.25641026 68:0.096153846 69:0.058823529 70:0.057692308 71:0.038461538 72:0.076923077 73:0.45454545 74:0.43103448 75:0.17241379 76:0.15789474 77:0.15254237 78:0.15517241 79:0.19298246 80:0.24561404 81:0.70175439 82:0.70175439 83:0.26415094 84:0.19230769 85:0.17391304 86:0.17391304 87:0.090909091 88:0.14285714 89:0.125 90:0.175 91:0.19512195 92:0.24390244 93:0.27906977 94:0.23255814 95:0.18604651 96:0.175 97:0.225 98:0.18421053 99:0.13513514 100:0.21212121 101:0.28571429 102:0.2972973 103:0.39473684 104:0.39473684 105:0.34285714 106:0.27777778 107:0.22222222 108:0.22222222 109:0.24324324 110:0.25 111:0.29411765 112:0.29032258 113:0.2962963 114:0.27586207 115:0.15 116:0.15789474 117:0.11904762 118:0.34042553 119:0.28 120:0.26530612 121:0.15909091 122:0.095238095 123:0.22222222 124:0.18604651 125:0.15384615 126:0.17647059 127:0.058823529 128:0 129:0.42519685 130:0.26315789 131:0.18181818 132:0.56 133:0.53846154 134:0.64285714 135:0.2962963 136:0.48387097 137:0.33333333 138:0.10526316 139:0.63636364 140:0.51851852 141:0.21875 142:0.2962963 143:0.26666667 144:0.33333333 145:0.19230769 146:0.31818182 147:0.20689655 148:0.041666667 149:0.61538462 150:0.15384615 151:0.66666667 152:0 153:0.53846154 154:0.094339623 155:0.8 156:0.77272727 157:0 158:0.33333333 159:0 160:0.11111111 161:0.8125 162:1 163:0.2962963 164:0.37142857 165:0.46666667 166:0.31111111 167:0.61111111 168:0.47222222 169:0.5 170:0.60714286 171:0.25925926 172:0.35 173:0.16666667 174:0.27906977 175:0.041666667 176:0.65454545 177:0.81132075 178:1 179:0.46808511 180:0.6097561 181:0.22222222 182:0.25 183:0.33333333 184:0.041666667 185:0.75 186:0.040816327 187:0.73333333 188:0.33333333 189:0.35294118 190:0.25714286 191:0 192:0.29545455 193:0.95121951 194:1 195:0.24137931 196:0.27777778 197:0.090909091 198:0.053571429 199:0 200:0.036363636 201:0.5 202:0.2 203:0.63636364 204:0.31034483 205:0.73333333 206:0.35714286 207:0.73333333 208:0.54285714 209:0.61111111 210:1 211:0.16666667 212:0.083333333 213:0.25423729 214:0.048780488 215:0.25 216:0.083333333 217:0.26470588 218:0.2173913 219:0.15 220:0.46153846 221:0.1147541 222:0.1 223:0.15 224:0.375 225:0.063829787 226:0.72222222 227:0.10714286 228:0.76470588 229:0.10526316 230:0.10416667 231:0.33333333 232:0.15 233:0.27906977 234:0.21875 235:0.086956522 236:0.10344828 237:0.5 238:0.12903226 239:0.05 240:0.125 241:0.33333333 242:0.66037736 243:0.60869565 244:0.3 245:0.15 246:0.14 247:0.33333333 248:0.71428571 249:0.16666667 250:0.2 251:0.13043478 252:0.27777778 253:0.10714286 254:0.19230769 255:0.2 256:0.032258065 257:0.055555556 258:0.98148148 259:0.85 260:0.25 261:0.23529412 262:0.087719298 263:0.28571429 264:0.5 265:0.14705882 266:0.23404255 267:0.4 268:0.83333333 269:0.2962963 270:0.17241379 271:0.5 272:0.14285714 273:0.22222222 274:0.85454545 275:0.23560993 276:0.054155859 277:0.4280263 278:0.75810293 279:6.4239538e-292 280:0.82662756 281:0.30548406 282:0.50428155 283:0.81126552 284:3.1017286e-291 285:2.0732256e-292 286:0.29528402 287:0.74701119 288:0.51332739 289:0.45440905 290:0.30117119 291:0.72402628 292:0.76510932 293:0.24559286 294:0.076287017 295:0.32422585 296:0.91478319 297:0.14990316 298:0.58301206 299:0.10382594 300:0.91113441 301:0.68508021 302:0.20199975 303:0.042106583 304:0.016925327 305:1.4624748e-291 306:0.7956843 307:0.18918919 308:0 309:0.34939759 310:0.023255814 311:0.16326531 312:0 313:0.26315789 314:0.41176471 315:0 316:0.11111111 317:0.076190476 318:0.010869565 319:0.038461538 320:0 321:0.2183908 322:0.64814815 323:0.052631579 324:0.54666667 325:0.010869565 326:0.027777778 327:0.11688312 328:0.24 329:0.12060302 330:0.51968504 331:0 332:0.44 333:0.15238095 334:0.12650602 335:0.04 336:0.045454545 337:0.19512195 338:0.46043165 339:0.58 340:0.23529412 341:0 342:0.055555556 343:0.34782609 344:0.73770492 345:0 346:0.18518519 347:0 348:0.22 349:0.038461538 350:0.2734375 351:0 352:0 353:0 354:0.38931298 355:0.64912281 356:0 357:0 358:0 359:0 360:0.46153846 361:0 362:0.19834711 363:0.1875 364:0.375 365:0.376 366:0.022727273 367:0 368:0.027777778 369:0.067961165 370:0.34848485 371:0.18181818 372:0.57692308 373:0.53846154 374:0.64285714 375:0.2962963 376:0.48387097 377:0.33333333 378:0.10526316 379:0.55555556 380:0.17073171 381:0.20512821 382:0.30952381 383:0.29032258 384:0.38709677 385:0.03125 386:0.23529412 387:0.19589144 388:0.58279658 389:0.73908846 390:0.82856709 391:0.50835808 392:0.53749313 393:0.57920171 394:0.067050247 395:0.82057264 396:0.39679865 397:0.44349655 398:0.64437481 399:0.44611703 400:0.52289284 401:0.26491009 402:0.41212758 
-0.8707938247082966 0.875825523572368 0.8748252269872056 0.8578449285729378 0.922134794809275 0:0.14705882 1:0.090909091 2:0.15 3:0.1 4:0.056603774 5:0.056603774 6:0.075471698 7:0 8:0.019607843 9:0.02 10:0.019607843 11:0 12:0.070175439 13:0.070175439 14:0.070175439 15:0.06779661 16:0.017857143 17:0.035714286 18:0.67857143 19:0.75 20:0.75 21:0.79245283 22:0.16326531 23:0.088888889 24:0.18367347 25:0.18367347 26:0.16666667 27:0.2244898 28:0.29787234 29:0.31914894 30:0.28888889 31:0.23809524 32:0.17777778 33:0.12244898 34:0.0625 35:0.02173913 36:0 37:0 38:0.024390244 39:0 40:0 41:0.020833333 42:0.039215686 43:0.02 44:0.094339623 45:0.13461538 46:0.15217391 47:0.23913043 48:0.71186441 49:0.72131148 50:0.66129032 51:0.63333333 52:0.016949153 53:0 54:0 55:0 56:0.036363636 57:0.037037037 58:0.089285714 59:0.10869565 60:0.14285714 61:0.16 62:0.12 63:0.125 64:0.0625 65:0.13333333 66:0.26666667 67:0.15384615 68:0.038461538 69:0 70:0 71:0 72:0.076923077 73:0.072727273 74:0.086206897 75:0.13793103 76:0.98245614 77:0 78:0 79:0.01754386 80:0.01754386 81:0.01754386 82:0.01754386 83:0.018867925 84:0 85:0.043478261 86:0.086956522 87:0.61363636 88:0.66666667 89:0.05 90:0.075 91:0.073170732 92:0.073170732 93:0.11627907 94:0.069767442 95:0.046511628 96:0 97:0.025 98:0.078947368 99:0.67567568 100:0 101:0 102:0 103:0 104:0 105:0 106:0 107:0 108:0 109:0 110:0.66666667 111:0 112:0 113:0 114:0 115:0 116:0 117:0 118:0.042553191 119:0.04 120:0.020408163 121:0.022727273 122:0 123:0.26666667 124:0.30232558 125:0.28205128 126:0.29411765 127:0.23529412 128:0.27777778 129:0.11023622 130:0.59868421 131:0.18181818 132:0.12 133:0.076923077 134:0.39285714 135:0.14814815 136:0.12903226 137:0 138:0.68421053 139:0.59090909 140:0.2962963 141:0.40625 142:1 143:0.8 144:1 145:0.15384615 146:0.31818182 147:0.31034483 148:0.33333333 149:0.84615385 150:0.23076923 151:0.91666667 152:0.083333333 153:0 154:0 155:0.1 156:0.13636364 157:0.57894737 158:0.46666667 159:0.6 160:0.18518519 161:0.4375 162:1 163:0.96296296 164:0.65714286 165:1 166:0.73333333 167:0 168:0.33333333 169:0.9 170:0.375 171:0.14814815 172:0.25 173:0 174:0.11627907 175:0.041666667 176:0.78181818 177:0.96226415 178:1 179:0.5106383 180:0.82926829 181:0.11111111 182:0.82142857 183:0.88888889 184:0.625 185:0.66666667 186:0.040816327 187:0 188:0.25 189:1 190:1 191:0.94444444 192:0.86363636 193:0.41463415 194:0.46 195:0.10344828 196:0.16666667 197:0 198:0.46428571 199:0.92307692 200:0.58181818 201:0.64285714 202:0.58 203:0.81818182 204:0.96551724 205:0.86666667 206:1 207:0.86666667 208:0.77142857 209:0.72222222 210:0.045454545 211:0 212:0 213:1 214:0 215:0.41666667 216:0 217:0.32352941 218:0.086956522 219:0.1 220:0.076923077 221:0.91803279 222:0.016666667 223:0.05 224:0.125 225:0.55319149 226:0 227:0.67857143 228:0.058823529 229:0.10526316 230:0.041666667 231:0.33333333 232:0.1 233:0.27906977 234:0.46875 235:0.043478261 236:0 237:0.57142857 238:0.35483871 239:0.05 240:0.125 241:0.19047619 242:0.62264151 243:0.60869565 244:0 245:0 246:0 247:0.055555556 248:0.071428571 249:0.45833333 250:0.65714286 251:0 252:0 253:0.75 254:0.30769231 255:0.2 256:0.032258065 257:0.22222222 258:0.62962963 259:0 260:0 261:0 262:0 263:0.21428571 264:0.25 265:0.088235294 266:0.91489362 267:0.3 268:0 269:0 270:0.51724138 271:0.25 272:0.071428571 273:0.037037037 274:0.65454545 275:0.90858937 276:0.049625196 277:0.6080947 278:0.13431858 279:3.6171424e-291 280:0.021599566 281:0.33222086 282:0.44455694 283:0.37566421 284:7.7004281e-293 285:4.0808548e-291 286:0.43822532 287:0.29924939 288:0.10772384 289:0.038488614 290:0.8789214 291:1 292:2.742362e-314 293:0.39581395 294:9.4004104e-315 295:0.56507886 296:0.015378253 297:0.2124656 298:0.68532221 299:0.43346207 300:0.12361761 301:0.83646876 302:0.090008971 303:0.11908629 304:0.032046852 305:1.8818089e-291 306:0.70585891 307:0 308:0 309:0.1686747 310:0 311:0.75510204 312:0 313:0.16842105 314:0.26470588 315:0.043478261 316:0 317:0.15238095 318:0 319:0.23076923 320:0.28571429 321:0.36781609 322:0 323:0.73684211 324:0 325:0.010869565 326:0 327:0.2987013 328:0 329:0.12060302 330:0.38582677 331:0 332:0.04 333:0.14285714 334:0.060240964 335:0 336:0 337:0.016260163 338:0.20863309 339:0.21 340:0 341:0.020833333 342:0 343:0 344:0.016393443 345:0.25287356 346:0.36111111 347:0.046511628 348:0 349:0.28846154 350:0 351:0 352:0 353:0 354:0.26717557 355:0 356:0 357:0 358:0 359:0 360:0 361:0 362:0.50413223 363:0.4375 364:0.125 365:0 366:0.19318182 367:0 368:0 369:0 370:0.25757576 371:0.18181818 372:0.15384615 373:0.076923077 374:0.39285714 375:0.14814815 376:0.12903226 377:0 378:0.68421053 379:0.2962963 380:0.14634146 381:0.25641026 382:0.33333333 383:0.64516129 384:0.61290323 385:0.1875 386:0.26470588 387:0.51358076 388:0.22461373 389:0.15020933 390:0.7970742 391:0.71150244 392:0.22042629 393:0.52667618 394:0.88280112 395:0.29735828 396:0.22957644 397:0.41624351 398:0.57132359 399:0.88379843 400:0.66416883 401:0.44580301 402:0.367549 
-0.8327691283932118 0.8370373872685005 0.8358740050132335 0.8199220546700426 0.8812418130063263 0:0.35714286 1:0.090909091 2:0.2 3:0.15 4:0.056603774 5:0.075471698 6:0.094339623 7:0.02 8:0 9:0 10:0.019607843 11:0.02 12:0.087719298 13:0.070175439 14:0.070175439 15:0.06779661 16:0.035714286 17:0.66071429 18:0.66071429 19:0.76785714 20:0.76785714 21:0.81132075 22:0.87755102 23:0.22222222 24:0.20408163 25:0.20408163 26:0.20833333 27:0.24489796 28:0.31914894 29:0.36170213 30:0.31111111 31:0.33333333 32:0.22222222 33:0.16326531 34:0.10416667 35:0.065217391 36:0.044444444 37:0.048780488 38:0.073170732 39:0.048780488 40:0.048780488 41:0.0625 42:0.078431373 43:0.06 44:0.16981132 45:0.17307692 46:0.19565217 47:0.34782609 48:0.72881356 49:0.73770492 50:0.69354839 51:0.65 52:0.016949153 53:0.016949153 54:0.016393443 55:0.016666667 56:0.054545455 57:0.074074074 58:0.10714286 59:0.13043478 60:0.17142857 61:0.16 62:0.12 63:0.1875 64:0.125 65:0.066666667 66:0.26666667 67:0.15384615 68:0.038461538 69:0 70:0 71:0 72:0.13461538 73:0.090909091 74:0.068965517 75:0.13793103 76:0.98245614 77:0.98305085 78:0.017241379 79:0.01754386 80:0.01754386 81:0.01754386 82:0.01754386 83:0.018867925 84:0 85:0.086956522 86:0.086956522 87:0.56818182 88:0.61904762 89:0.075 90:0.075 91:0.048780488 92:0.073170732 93:0.13953488 94:0.11627907 95:0.093023256 96:0.025 97:0.025 98:0.13157895 99:0.67567568 100:0.78787879 101:0.057142857 102:0.054054054 103:0.052631579 104:0.052631579 105:0.057142857 106:0.055555556 107:0.055555556 108:0.083333333 109:0.081081081 110:0.69444444 111:0.088235294 112:0.064516129 113:0.074074074 114:0.068965517 115:0.05 116:0.052631579 117:0.047619048 118:0.085106383 119:0.08 120:0.06122449 121:0.090909091 122:0.047619048 123:0.31111111 124:0.34883721 125:0.33333333 126:0.29411765 127:0.29411765 128:0.38888889 129:0.1023622 130:0.57894737 131:0.18181818 132:0.12 133:0.076923077 134:0.39285714 135:0.11111111 136:0.12903226 137:0 138:0.68421053 139:0.59090909 140:0.2962963 141:0.3125 142:1 143:0.8 144:1 145:0.15384615 146:0.31818182 147:0.31034483 148:0.35416667 149:0.84615385 150:0.23076923 151:0.91666667 152:0.25 153:0 154:0 155:0.1 156:0.13636364 157:0.57894737 158:0.46666667 159:0.6 160:0.18518519 161:0.4375 162:1 163:0.96296296 164:0.62857143 165:1 166:0.71111111 167:0 168:0.30555556 169:0.9 170:0.35714286 171:0.14814815 172:0.25 173:0 174:0.11627907 175:0.041666667 176:0.76363636 177:0.94339623 178:1 179:0.4893617 180:0.80487805 181:0.11111111 182:0.82142857 183:1 184:0.625 185:0.75 186:0.020408163 187:0 188:0.20833333 189:0.94117647 190:1 191:0.88888889 192:0.86363636 193:0.3902439 194:0.46 195:0.10344828 196:0.13888889 197:0 198:0.44642857 199:0.92307692 200:0.58181818 201:0.64285714 202:0.56 203:0.81818182 204:0.93103448 205:0.86666667 206:0.92857143 207:0.86666667 208:0.74285714 209:0.72222222 210:0.045454545 211:0 212:0 213:1 214:0.024390244 215:0.33333333 216:0 217:0.55882353 218:0.086956522 219:0.1 220:0.15384615 221:0.96721311 222:0.033333333 223:0.1 224:0.125 225:0.76595745 226:0.018518519 227:0.32142857 228:0.058823529 229:0.10526316 230:0.041666667 231:0.25 232:0.1 233:0.23255814 234:0.65625 235:0.043478261 236:0.034482759 237:0.52380952 238:0.35483871 239:0.05 240:0.125 241:0.14285714 242:0.64150943 243:0.13043478 244:0 245:0 246:0 247:0.16666667 248:0.21428571 249:0.54166667 250:0.65714286 251:0.043478261 252:0 253:0.85714286 254:0.19230769 255:0.2 256:0.032258065 257:0.38888889 258:0.64814815 259:0 260:0 261:0 262:0 263:0.35714286 264:0.41666667 265:0.14705882 266:0.89361702 267:0.3 268:0 269:0 270:0.48275862 271:0.25 272:0.071428571 273:0.037037037 274:0.67272727 275:0.65502954 276:0.089094538 277:0.76631516 278:0.071289983 279:1.8956147e-291 280:0.084848056 281:0.32732674 282:0.58574114 283:0.19536809 284:1.2219598e-292 285:5.0131459e-291 286:0.4299672 287:0.25971129 288:0.089436246 289:0.015189492 290:0.92414989 291:0.51899093 292:0.091127266 293:0.93174348 294:1.3056125e-316 295:0.33841795 296:0.023966585 297:0.21798889 298:0.79843582 299:0.39263198 300:0.13425285 301:0.92823135 302:0.015387175 303:0.16433444 304:0.073582436 305:2.1403412e-291 306:0.64591585 307:0 308:0 309:0.34939759 310:0 311:0.69387755 312:0 313:0.32631579 314:0.30882353 315:0.043478261 316:0 317:0.3047619 318:0 319:0.34615385 320:0.71428571 321:0.47126437 322:0 323:0.42105263 324:0.026666667 325:0.065217391 326:0 327:0.14285714 328:0 329:0.10050251 330:0.57480315 331:0 332:0.08 333:0.14285714 334:0.060240964 335:0 336:0 337:0.0081300813 338:0.21582734 339:0.11 340:0 341:0.14583333 342:0 343:0.02173913 344:0.032786885 345:0.34482759 346:0.65740741 347:0.069767442 348:0 349:0.43269231 350:0 351:0 352:0 353:0 354:0.26717557 355:0 356:0 357:0 358:0 359:0 360:0 361:0 362:0.73553719 363:0.46875 364:0.125 365:0 366:0.21590909 367:0 368:0 369:0 370:0.25757576 371:0.18181818 372:0.15384615 373:0.076923077 374:0.39285714 375:0.11111111 376:0.12903226 377:0 378:0.68421053 379:0.2962963 380:0.46341463 381:0.23076923 382:0.28571429 383:0.64516129 384:0.67741935 385:0.1875 386:0.26470588 387:0.52428259 388:0.23072304 389:0.1579281 390:0.80811902 391:0.63780633 392:0.2294651 393:0.54197908 394:0.89255243 395:0.23847536 396:0.81065048 397:0.28051098 398:0.43172334 399:0.78560029 400:0.66218536 401:0.38590024 402:0.31198338 
